{"learner":{"attributes":{"scikit_learn":"{\"_estimator_type\": \"regressor\"}"},"feature_names":["e_d3","e_d4","e_dp","e_gp","e_none","e_s1","e_s2","e_s3","e_sma","e_smu/smk/stm","e_sp","experience_","experience_1.0","experience_10.0","experience_11.0","experience_12.0","experience_15.0","experience_17.0","experience_2.0","experience_20.0","experience_3.0","experience_4.0","experience_5.0","experience_6.0","experience_7.0","experience_8.0","gig1_Aktuaria/Statistik","gig1_Akuntansi Umum / Pembiayaan","gig1_Angkatan Bersenjata","gig1_Arsitek/Desain Interior","gig1_Audit & Pajak","gig1_Biomedis","gig1_Bioteknologi","gig1_Diagnosa/Lainnya","gig1_Digital Marketing","gig1_E-commerce","gig1_Farmasi","gig1_Geologi/Geofisika","gig1_Hiburan","gig1_Hotel/Pariwisata","gig1_Hubungan Masyarakat","gig1_IT-Admin Jaringan/Sistem/Database","gig1_IT-Perangkat Keras","gig1_IT-Perangkat Lunak","gig1_Jurnalis/Editor","gig1_Keuangan / Investasi Perusahaan ","gig1_Kimia","gig1_Kontrol Proses","gig1_Lainnya/Kategori tidak tersedia","gig1_Layanan Pelanggan","gig1_Layanan Sosial/Konseling","gig1_Logistik/Rantai Pasokan","gig1_Makanan/Minuman/Pelayanan Restoran","gig1_Manufaktur","gig1_Mekanikal","gig1_Merchandising","gig1_Minyak/Gas","gig1_Pekerjaan Umum","gig1_Pelatihan & Pengembangan","gig1_Pemasaran/Pengembangan Bisnis","gig1_Pembelian/Manajemen Material","gig1_Pemeliharaan","gig1_Pendidikan","gig1_Penerbitan","gig1_Pengacara / Asisten Legal","gig1_Penjaminan Kualitas / QA","gig1_Penjualan - Jasa Keuangan","gig1_Penjualan - Korporasi","gig1_Penjualan - Teknik/Teknikal/IT","gig1_Penjualan Ritel","gig1_Perawatan Pribadi","gig1_Perbankan / Jasa Finansial ","gig1_Periklanan","gig1_Pertanian","gig1_Praktisi/Asisten Medis","gig1_Properti/Real Estate","gig1_Sains & Teknologi","gig1_Sekretaris","gig1_Seni / Desain Kreatif","gig1_Staf / Administrasi umum","gig1_Sumber Daya Manusia / HR","gig1_Survei Kuantitas","gig1_Teknik Elektro","gig1_Teknik Elektronika","gig1_Teknik Industri","gig1_Teknik Kimia","gig1_Teknik Lainnya","gig1_Teknik Lingkungan","gig1_Teknik Sipil/Konstruksi Bangunan","gig1_Teknikal & Bantuan Pelanggan","gig1_Teknologi Makanan/Ahli Gizi","gig1_Telesales/Telemarketing","gig1_Top Management / Manajemen Tingkat Atas","gig2_Akuntansi / Keuangan","gig2_Bangunan/Konstruksi","gig2_Hotel/Restoran","gig2_Komputer/Teknologi Informasi","gig2_Lainnya","gig2_Layanan Kesehatan","gig2_Manufaktur","gig2_Pelayanan","gig2_Pendidikan/Pelatihan","gig2_Penjualan / Pemasaran","gig2_Sains","gig2_Seni/Media/Komunikasi","gig2_Sumber Daya Manusia/Personalia","gig2_Teknik","industry_","industry_Agrikultural/Perkebunan/Peternakan Unggas/Perikanan","industry_Akunting / Audit / Layanan Pajak","industry_Asuransi","industry_Automobil/Mesin Tambahan Automotif/Kendaraan","industry_Bahan Kimia/Pupuk/Pestisida","industry_BioTeknologi/Farmasi/Riset klinik","industry_Call Center/IT-Enabled Services/BPO","industry_Elektrikal & Elektronik","industry_Hiburan/Media","industry_Hotel/Pariwisata","industry_Hukum/Legal","industry_Ilmu Pengetahuan & Teknologi","industry_Industri Berat/Mesin/Peralatan","industry_Jual Beli Saham/Sekuritas","industry_Jurnalisme","industry_Kayu/Fiber/Kertas","industry_Keamanan/Penegak hukum","industry_Kelautan/Aquakultur","industry_Kesehatan/Medis","industry_Komputer/Teknik Informatika (Perangkat Keras)","industry_Komputer/Teknik Informatika (Perangkat Lunak)","industry_Konstruksi/Bangunan/Teknik","industry_Konsultasi (Bisnis & Manajemen)","industry_Konsultasi (IT, Ilmu Pengetahuan, Teknis & Teknikal)","industry_Lainnya","industry_Layanan Umum/Tenaga Penggerak","industry_Lingkungan/Kesehatan/Keamanan","industry_Makanan & Minuman/Katering/Restoran","industry_Manajemen/Konsulting HR","industry_Manufaktur/Produksi","industry_Minyak/Gas/Petroleum","industry_Olahraga","industry_Organisasi Nirlaba/Pelayanan Sosial/LSM","industry_Pakaian","industry_Pameran/Manajemen acara/PIKP","industry_Pelayanan Arsitek/Desain Interior","industry_Pelayanan Perbaikan & Pemeliharaan","industry_Pemerintahan/Pertahanan","industry_Pendidikan","industry_Perawatan/Kecantikan/Fitnes","industry_Perbankan/Pelayanan Keuangan","industry_Percetakan/Penerbitan","industry_Periklanan/Marketing/Promosi/Hubungan Masyarakat","industry_Permata/Perhiasan","industry_Pertambangan","industry_Polymer/Plastik/Karet/Ban","industry_Produk Konsumen/Barang konsumen yang bergerak cepat","industry_Properti/Real Estate","industry_R&D","industry_Retail/Merchandise","industry_Seni/Desain/Fashion","industry_Tekstil/Garment","industry_Telekomunikasi","industry_Transportasi/Logistik","industry_Travel/Pariwisata","industry_Umum & Grosir","position_CEO/GM/Direktur/Manajer Senior","position_Lulusan baru/Pengalaman kerja kurang dari 1 tahun","position_Manajer/Asisten Manajer","position_Pegawai (non-manajemen & non-supervisor)","position_Supervisor/Koordinator"],"feature_types":["int","int","int","int","int","int","int","int","int","int","int","i","i","i","i","i","i","i","i","i","i","i","i","i","i","i","i","i","i","i","i","i","i","i","i","i","i","i","i","i","i","i","i","i","i","i","i","i","i","i","i","i","i","i","i","i","i","i","i","i","i","i","i","i","i","i","i","i","i","i","i","i","i","i","i","i","i","i","i","i","i","i","i","i","i","i","i","i","i","i","i","i","i","i","i","i","i","i","i","i","i","i","i","i","i","i","i","i","i","i","i","i","i","i","i","i","i","i","i","i","i","i","i","i","i","i","i","i","i","i","i","i","i","i","i","i","i","i","i","i","i","i","i","i","i","i","i","i","i","i","i","i","i","i","i","i","i","i","i","i","i","i","i","i","i","i","i","i","i"],"gradient_booster":{"model":{"gbtree_model_param":{"num_parallel_tree":"1","num_trees":"50"},"iteration_indptr":[0,1,2,3,4,5,6,7,8,9,10,11,12,13,14,15,16,17,18,19,20,21,22,23,24,25,26,27,28,29,30,31,32,33,34,35,36,37,38,39,40,41,42,43,44,45,46,47,48,49,50],"tree_info":[0,0,0,0,0,0,0,0,0,0,0,0,0,0,0,0,0,0,0,0,0,0,0,0,0,0,0,0,0,0,0,0,0,0,0,0,0,0,0,0,0,0,0,0,0,0,0,0,0,0],"trees":[{"base_weights":[1.5619566E-1,-3.945741E5,3.9414812E6,2.674863E5,-1.5119228E6,3.5644402E6,5.1057915E6,-9.1833914E4,3.1495258E6,-1.7045348E6,5.4285925E5,3.44677E6,4.8852795E6,4.831112E6,1.4184369E6,-3.1767134E5,2.634249E6,2.988102E6,1.6671376E6,-1.7425852E6,4.128702E5,7.214116E5,-2.1177917E5,3.700927E6,2.9885082E6,1.1754655E6,9.7730256E5,4.3325135E6,6.0157225E6,2.0361938E4,-4.131064E5,5.2363378E5,1.5723134E6,5.8845606E5,1.0810431E6,-3.7613116E5,-6.006132E5,1.3678442E5,4.6966625E5,-3.1071794E5,2.6798166E5,8.888208E5,-1.1431829E5,5.2541494E5,9.78752E5,1.02948275E6,8.24061E5,1.0677312E6,1.9020606E6],"categories":[],"categories_nodes":[],"categories_segments":[],"categories_sizes":[],"default_left":[0,0,0,0,0,0,0,0,0,0,0,0,0,0,0,0,0,0,0,0,0,0,0,0,0,0,0,0,0,0,0,0,0,0,0,0,0,0,0,0,0,0,0,0,0,0,0,0,0],"id":0,"left_children":[1,3,5,7,9,11,13,15,17,19,21,23,25,27,-1,29,31,33,-1,35,-1,37,39,41,43,-1,-1,45,47,-1,-1,-1,-1,-1,-1,-1,-1,-1,-1,-1,-1,-1,-1,-1,-1,-1,-1,-1,-1],"loss_changes":[6.171372E15,2.6684012E15,1.5670027E14,2.34571E15,5.3126303E14,4.0762192E13,2.5954219E13,1.2400674E15,1.7045786E14,1.6558602E14,1.5524134E13,2.813982E13,1.7894579E12,3.9979166E13,0E0,1.1528063E15,2.043385E14,1.6266867E14,0E0,7.932321E13,0E0,1.4304917E13,3.6411772E13,1.6930332E14,7.9129E13,0E0,0E0,6.642771E12,6.1329113E13,0E0,0E0,0E0,0E0,0E0,0E0,0E0,0E0,0E0,0E0,0E0,0E0,0E0,0E0,0E0,0E0,0E0,0E0,0E0,0E0],"parents":[2147483647,0,0,1,1,2,2,3,3,4,4,5,5,6,6,7,7,8,8,9,9,10,10,11,11,12,12,13,13,15,15,16,16,17,17,19,19,21,21,22,22,23,23,24,24,27,27,28,28],"right_children":[2,4,6,8,10,12,14,16,18,20,22,24,26,28,-1,30,32,34,-1,36,-1,38,40,42,44,-1,-1,46,48,-1,-1,-1,-1,-1,-1,-1,-1,-1,-1,-1,-1,-1,-1,-1,-1,-1,-1,-1,-1],"split_conditions":[1E0,1E0,1E0,1E0,1E0,1E0,1E0,1E0,1E0,1E0,1E0,1E0,1E0,1E0,1.4184369E6,1E0,1E0,1E0,1.6671376E6,1E0,4.128702E5,1E0,1E0,1E0,1E0,1.1754655E6,9.7730256E5,1E0,1E0,2.0361938E4,-4.131064E5,5.2363378E5,1.5723134E6,5.8845606E5,1.0810431E6,-3.7613116E5,-6.006132E5,1.3678442E5,4.6966625E5,-3.1071794E5,2.6798166E5,8.888208E5,-1.1431829E5,5.2541494E5,9.78752E5,1.02948275E6,8.24061E5,1.0677312E6,1.9020606E6],"split_indices":[22,12,102,2,43,100,4,43,13,33,9,10,64,2,0,9,21,43,0,135,0,2,135,135,135,0,0,10,67,0,0,0,0,0,0,0,0,0,0,0,0,0,0,0,0,0,0,0,0],"split_type":[0,0,0,0,0,0,0,0,0,0,0,0,0,0,0,0,0,0,0,0,0,0,0,0,0,0,0,0,0,0,0,0,0,0,0,0,0,0,0,0,0,0,0,0,0,0,0,0,0],"sum_hessian":[3.968E3,3.607E3,3.61E2,2.265E3,1.342E3,2.73E2,8.8E1,2.014E3,2.51E2,1.227E3,1.15E2,2.51E2,2.2E1,7.2E1,1.6E1,1.86E3,1.54E2,2.42E2,9E0,1.214E3,1.3E1,9.3E1,2.2E1,1.61E2,9E1,1.3E1,9E0,5.1E1,2.1E1,1.466E3,3.94E2,1.44E2,1E1,2.01E2,4.1E1,1.128E3,8.6E1,8.6E1,7E0,1.2E1,1E1,1.52E2,9E0,6.1E1,2.9E1,3.7E1,1.4E1,1.4E1,7E0],"tree_param":{"num_deleted":"0","num_feature":"169","num_nodes":"49","size_leaf_vector":"1"}},{"base_weights":[3.960192E2,-3.0565528E5,3.0576035E6,-5.113401E5,1.8508909E6,2.7507975E6,5.5067225E6,-6.715987E5,1.3576772E6,1.4486084E6,3.6589772E6,2.5756358E6,6.0530815E6,4.561851E6,1.6237541E6,-3.6200278E5,-1.5549885E6,1.1926254E6,1.2220454E6,1.8575179E6,5.0903678E5,5.0360445E6,2.892626E5,2.655795E6,-8.917321E4,1.8973286E6,6.565627E5,1.172854E6,8.179616E5,7.403369E3,-2.3926044E5,-5.061214E5,-2.6205438E5,3.7692397E5,9.394406E4,4.5381378E5,-4.5746862E5,4.4497426E4,3.6410853E5,1.1941334E6,9.8491194E5,6.226898E5,1.240038E5],"categories":[],"categories_nodes":[],"categories_segments":[],"categories_sizes":[],"default_left":[0,0,0,0,0,0,0,0,0,0,0,0,0,0,0,0,0,0,0,0,0,0,0,0,0,0,0,0,0,0,0,0,0,0,0,0,0,0,0,0,0,0,0],"id":1,"left_children":[1,3,5,7,9,11,13,15,17,19,21,23,25,27,-1,29,31,33,-1,35,37,39,-1,41,-1,-1,-1,-1,-1,-1,-1,-1,-1,-1,-1,-1,-1,-1,-1,-1,-1,-1,-1],"loss_changes":[3.712895E15,1.6000914E15,2.698179E14,9.864605E14,2.2793432E14,1.8417598E14,6.1497087E13,8.294779E14,1.7423343E14,9.8683215E13,1.8597148E14,7.278923E13,1.176415E14,1.3842612E13,0E0,6.221249E14,2.1307467E14,9.3481305E13,0E0,1.1150668E14,2.6933459E13,4.1256516E12,0E0,6.9702487E13,0E0,0E0,0E0,0E0,0E0,0E0,0E0,0E0,0E0,0E0,0E0,0E0,0E0,0E0,0E0,0E0,0E0,0E0,0E0],"parents":[2147483647,0,0,1,1,2,2,3,3,4,4,5,5,6,6,7,7,8,8,9,9,10,10,11,11,12,12,13,13,15,15,16,16,17,17,19,19,20,20,21,21,23,23],"right_children":[2,4,6,8,10,12,14,16,18,20,22,24,26,28,-1,30,32,34,-1,36,38,40,-1,42,-1,-1,-1,-1,-1,-1,-1,-1,-1,-1,-1,-1,-1,-1,-1,-1,-1,-1,-1],"split_conditions":[1E0,1E0,1E0,1E0,1E0,1E0,1E0,1E0,1E0,1E0,1E0,1E0,1E0,1E0,1.6237541E6,1E0,1E0,1E0,1.2220454E6,1E0,1E0,1E0,2.892626E5,1E0,-8.917321E4,1.8973286E6,6.565627E5,1.172854E6,8.179616E5,7.403369E3,-2.3926044E5,-5.061214E5,-2.6205438E5,3.7692397E5,9.394406E4,4.5381378E5,-4.5746862E5,4.4497426E4,3.6410853E5,1.1941334E6,9.8491194E5,6.226898E5,1.240038E5],"split_indices":[22,2,136,43,136,128,102,9,21,18,18,143,2,0,0,0,0,0,0,9,43,102,0,155,0,0,0,0,0,0,0,0,0,0,0,0,0,0,0,0,0,0,0],"split_type":[0,0,0,0,0,0,0,0,0,0,0,0,0,0,0,0,0,0,0,0,0,0,0,0,0,0,0,0,0,0,0,0,0,0,0,0,0,0,0,0,0,0,0],"sum_hessian":[3.968E3,3.607E3,3.61E2,3.293E3,3.14E2,3.21E2,4E1,3.033E3,2.6E2,2.57E2,5.7E1,3.05E2,1.6E1,2.6E1,1.4E1,2.246E3,7.87E2,2.5E2,1E1,1.79E2,7.8E1,3.6E1,2.1E1,2.97E2,8E0,9E0,7E0,1.5E1,1.1E1,1.437E3,8.09E2,2.83E2,5.04E2,1.54E2,9.6E1,1.72E2,7E0,6.1E1,1.7E1,2.5E1,1.1E1,2.82E2,1.5E1],"tree_param":{"num_deleted":"0","num_feature":"169","num_nodes":"43","size_leaf_vector":"1"}},{"base_weights":[5.687646E2,-5.6717825E5,4.2977185E6,-7.813436E5,9.7233375E5,4.104691E6,7.060854E6,-1.060627E6,3.5743747E5,6.400171E5,3.046121E6,4.253144E6,8.646493E5,1.4287958E6,1.7188579E6,-9.152175E5,-2.1708268E6,6.884907E5,-3.196469E5,4.9025697E5,3.3817458E6,4.276334E6,8.1030456E5,4.0840178E6,6.125855E6,6.3150504E4,3.3824288E5,-2.2530348E5,6.0778707E4,-4.71104E5,-7.761709E5,1.3506142E5,7.5086394E5,-9.106881E4,3.2887897E5,1.4402289E5,-3.268158E5,3.739596E5,1.2817409E6,1.0764002E6,6.746326E5,3.536247E5,2.480283E4,8.999438E5,1.6820059E6,1.4885865E6,1.059022E6],"categories":[],"categories_nodes":[],"categories_segments":[],"categories_sizes":[],"default_left":[0,0,0,0,0,0,0,0,0,0,0,0,0,0,0,0,0,0,0,0,0,0,0,0,0,0,0,0,0,0,0,0,0,0,0,0,0,0,0,0,0,0,0,0,0,0,0],"id":2,"left_children":[1,3,5,7,9,11,13,15,17,19,21,23,25,-1,-1,27,29,31,33,35,37,39,41,43,45,-1,-1,-1,-1,-1,-1,-1,-1,-1,-1,-1,-1,-1,-1,-1,-1,-1,-1,-1,-1,-1,-1],"loss_changes":[9.681192E15,1.1557432E15,2.441007E14,9.786868E14,2.9483186E14,2.0795104E14,7.523575E12,3.987198E14,1.3587988E14,1.5138726E14,1.622098E14,1.2865306E14,7.0813525E12,0E0,0E0,2.2311563E14,2.7460947E13,9.492294E13,3.0242178E13,1.0201207E14,7.508851E13,2.3284159E13,1.1229092E13,1.0564224E14,2.0601616E13,0E0,0E0,0E0,0E0,0E0,0E0,0E0,0E0,0E0,0E0,0E0,0E0,0E0,0E0,0E0,0E0,0E0,0E0,0E0,0E0,0E0,0E0],"parents":[2147483647,0,0,1,1,2,2,3,3,4,4,5,5,6,6,7,7,8,8,9,9,10,10,11,11,12,12,15,15,16,16,17,17,18,18,19,19,20,20,21,21,22,22,23,23,24,24],"right_children":[2,4,6,8,10,12,14,16,18,20,22,24,26,-1,-1,28,30,32,34,36,38,40,42,44,46,-1,-1,-1,-1,-1,-1,-1,-1,-1,-1,-1,-1,-1,-1,-1,-1,-1,-1,-1,-1,-1,-1],"split_conditions":[1E0,1E0,1E0,1E0,1E0,1E0,1E0,1E0,1E0,1E0,1E0,1E0,1E0,1.4287958E6,1.7188579E6,1E0,1E0,1E0,1E0,1E0,1E0,1E0,1E0,1E0,1E0,6.3150504E4,3.3824288E5,-2.2530348E5,6.0778707E4,-4.71104E5,-7.761709E5,1.3506142E5,7.5086394E5,-9.106881E4,3.2887897E5,1.4402289E5,-3.268158E5,3.739596E5,1.2817409E6,1.0764002E6,6.746326E5,3.536247E5,2.480283E4,8.999438E5,1.6820059E6,1.4885865E6,1.059022E6],"split_indices":[166,96,100,168,168,95,51,11,18,136,18,136,1,0,0,2,95,54,106,11,1,128,1,154,1,0,0,0,0,0,0,0,0,0,0,0,0,0,0,0,0,0,0,0,0,0,0],"split_type":[0,0,0,0,0,0,0,0,0,0,0,0,0,0,0,0,0,0,0,0,0,0,0,0,0,0,0,0,0,0,0,0,0,0,0,0,0,0,0,0,0,0,0,0,0,0,0],"sum_hessian":[3.968E3,3.505E3,4.63E2,3.077E3,4.28E2,4.33E2,3E1,2.471E3,6.06E2,3.69E2,5.9E1,4.14E2,1.9E1,1.4E1,1.6E1,2.185E3,2.86E2,4.07E2,1.99E2,3.5E2,1.9E1,3.8E1,2.1E1,3.8E2,3.4E1,1E1,9E0,2.037E3,1.48E2,2.7E2,1.6E1,3.94E2,1.3E1,1.9E2,9E0,3.25E2,2.5E1,1.1E1,8E0,2.7E1,1.1E1,1E1,1.1E1,3.71E2,9E0,2.5E1,9E0],"tree_param":{"num_deleted":"0","num_feature":"169","num_nodes":"47","size_leaf_vector":"1"}},{"base_weights":[7.430265E2,-4.3946856E5,3.3326055E6,-5.832786E5,9.7218906E5,3.6139995E6,1.940825E6,1.4973336E5,-8.842782E5,7.311181E5,2.2891615E6,3.444592E6,1.2946502E6,1.6577691E6,1.0683079E6,7.3679056E5,-1.3066042E6,-9.1775494E5,9.996511E5,8.5151494E5,-2.7079E5,3.413416E6,1.3369214E5,3.3704715E6,1.34049E6,1.1734839E6,8.534192E5,1.463243E6,7.0618945E4,-3.880314E5,6.970034E5,-2.1482114E5,4.4284418E4,1.6709983E5,6.881267E5,9.056887E5,5.2420775E5,7.7147925E5,1.1905608E5,3.0997256E5,-7.031397E4],"categories":[],"categories_nodes":[],"categories_segments":[],"categories_sizes":[],"default_left":[0,0,0,0,0,0,0,0,0,0,0,0,0,0,0,0,0,0,0,0,0,0,0,0,0,0,0,0,0,0,0,0,0,0,0,0,0,0,0,0,0],"id":3,"left_children":[1,3,5,7,9,11,13,15,17,19,21,23,-1,25,-1,27,29,31,-1,33,-1,35,-1,37,-1,39,-1,-1,-1,-1,-1,-1,-1,-1,-1,-1,-1,-1,-1,-1,-1],"loss_changes":[5.8202557E15,7.1162924E14,1.8066619E14,7.0187926E14,1.0272914E14,1.3762954E14,6.127093E13,7.9186876E14,4.02574E14,6.3946728E13,9.526685E13,6.4510677E13,0E0,7.3075714E13,0E0,1.6096627E15,4.904108E14,9.2454406E13,0E0,6.177131E13,0E0,1.9019122E13,0E0,5.7340766E13,0E0,1.7670443E13,0E0,0E0,0E0,0E0,0E0,0E0,0E0,0E0,0E0,0E0,0E0,0E0,0E0,0E0,0E0],"parents":[2147483647,0,0,1,1,2,2,3,3,4,4,5,5,6,6,7,7,8,8,9,9,10,10,11,11,13,13,15,15,16,16,17,17,19,19,21,21,23,23,25,25],"right_children":[2,4,6,8,10,12,14,16,18,20,22,24,-1,26,-1,28,30,32,-1,34,-1,36,-1,38,-1,40,-1,-1,-1,-1,-1,-1,-1,-1,-1,-1,-1,-1,-1,-1,-1],"split_conditions":[1E0,1E0,1E0,1E0,1E0,1E0,1E0,1E0,1E0,1E0,1E0,1E0,1.2946502E6,1E0,1.0683079E6,1E0,1E0,1E0,9.996511E5,1E0,-2.7079E5,1E0,1.3369214E5,1E0,1.34049E6,1E0,8.534192E5,1.463243E6,7.0618945E4,-3.880314E5,6.970034E5,-2.1482114E5,4.4284418E4,1.6709983E5,6.881267E5,9.056887E5,5.2420775E5,7.7147925E5,1.1905608E5,3.0997256E5,-7.031397E4],"split_indices":[166,43,18,167,168,100,27,165,33,11,18,110,0,148,0,168,130,41,0,132,0,128,0,29,0,163,0,0,0,0,0,0,0,0,0,0,0,0,0,0,0],"split_type":[0,0,0,0,0,0,0,0,0,0,0,0,0,0,0,0,0,0,0,0,0,0,0,0,0,0,0,0,0,0,0,0,0,0,0,0,0,0,0,0,0],"sum_hessian":[3.968E3,3.505E3,4.63E2,3.181E3,3.24E2,3.85E2,7.8E1,9.26E2,2.255E3,2.74E2,5E1,3.57E2,2.8E1,7.1E1,7E0,6.6E2,2.66E2,2.241E3,1.4E1,2.58E2,1.6E1,3E1,2E1,3.47E2,1E1,5.8E1,1.3E1,4.5E1,6.15E2,2.43E2,2.3E1,2.169E3,7.2E1,2.46E2,1.2E1,1.9E1,1.1E1,3.4E2,7E0,5.1E1,7E0],"tree_param":{"num_deleted":"0","num_feature":"169","num_nodes":"41","size_leaf_vector":"1"}},{"base_weights":[8.4055426E2,-1.2896722E5,1.1813944E6,5.710653E4,-7.013452E5,1.054961E6,8.89938E5,3.3315975E5,-4.8079772E5,-1.3159461E6,-2.8517172E5,1.3249889E6,2.777182E5,5.844131E5,-3.3545625E5,-3.8117484E5,-1.848595E6,-1.1656008E6,-2.2051452E6,-5.475712E5,1.02896075E6,1.1423968E6,2.726422E6,4.6860122E5,-3.5399994E5,-8.2328316E1,2.1439978E5,-6.458603E4,-4.6907838E5,-9.412025E4,2.79589E5,-2.9236488E5,-5.2331344E5,-3.0022697E5,-1.1443368E5,-5.30394E5,-4.1102212E5,-1.3868189E5,8.1399225E5,8.030646E4,1.5267169E6,2.8094097E5,-1.7205227E5,4.1817428E5,7.27944E5,1.2334013E5,-1.9880752E4],"categories":[],"categories_nodes":[],"categories_segments":[],"categories_sizes":[],"default_left":[0,0,0,0,0,0,0,0,0,0,0,0,0,0,0,0,0,0,0,0,0,0,0,0,0,0,0,0,0,0,0,0,0,0,0,0,0,0,0,0,0,0,0,0,0,0,0],"id":4,"left_children":[1,3,5,7,9,11,-1,13,15,17,19,21,23,25,27,29,31,33,35,37,39,41,43,45,-1,-1,-1,-1,-1,-1,-1,-1,-1,-1,-1,-1,-1,-1,-1,-1,-1,-1,-1,-1,-1,-1,-1],"loss_changes":[6.081069E14,3.8076828E14,1.3744751E14,4.0065743E14,2.2430765E14,7.889801E13,0E0,2.995662E14,1.2462465E14,4.70815E13,1.804357E14,7.110765E13,3.4382482E13,2.7927897E14,4.118803E13,5.149685E13,1.5974158E13,3.3535038E13,2.5114486E12,1.25184615E14,3.367112E14,5.0155017E13,1.3575502E13,3.9095485E12,0E0,0E0,0E0,0E0,0E0,0E0,0E0,0E0,0E0,0E0,0E0,0E0,0E0,0E0,0E0,0E0,0E0,0E0,0E0,0E0,0E0,0E0,0E0],"parents":[2147483647,0,0,1,1,2,2,3,3,4,4,5,5,7,7,8,8,9,9,10,10,11,11,12,12,13,13,14,14,15,15,16,16,17,17,18,18,19,19,20,20,21,21,22,22,23,23],"right_children":[2,4,6,8,10,12,-1,14,16,18,20,22,24,26,28,30,32,34,36,38,40,42,44,46,-1,-1,-1,-1,-1,-1,-1,-1,-1,-1,-1,-1,-1,-1,-1,-1,-1,-1,-1,-1,-1,-1,-1],"split_conditions":[1E0,1E0,1E0,1E0,1E0,1E0,8.89938E5,1E0,1E0,1E0,1E0,1E0,1E0,1E0,1E0,1E0,1E0,1E0,1E0,1E0,1E0,1E0,1E0,1E0,-3.5399994E5,-8.2328316E1,2.1439978E5,-6.458603E4,-4.6907838E5,-9.412025E4,2.79589E5,-2.9236488E5,-5.2331344E5,-3.0022697E5,-1.1443368E5,-5.30394E5,-4.1102212E5,-1.3868189E5,8.1399225E5,8.030646E4,1.5267169E6,2.8094097E5,-1.7205227E5,4.1817428E5,7.27944E5,1.2334013E5,-1.9880752E4],"split_indices":[2,8,107,1,5,18,0,18,66,52,135,59,135,5,79,21,18,18,18,30,105,101,1,59,0,0,0,0,0,0,0,0,0,0,0,0,0,0,0,0,0,0,0,0,0,0,0],"split_type":[0,0,0,0,0,0,0,0,0,0,0,0,0,0,0,0,0,0,0,0,0,0,0,0,0,0,0,0,0,0,0,0,0,0,0,0,0,0,0,0,0,0,0,0,0,0,0],"sum_hessian":[3.968E3,3.575E3,3.93E2,2.698E3,8.77E2,3.76E2,1.7E1,1.783E3,9.15E2,3.54E2,5.23E2,2.79E2,9.7E1,1.296E3,4.87E2,8.53E2,6.2E1,3.03E2,5.1E1,4.36E2,8.7E1,2.47E2,3.2E1,8.8E1,9E0,5.01E2,7.95E2,4.74E2,1.3E1,8.34E2,1.9E1,2.9E1,3.3E1,2.41E2,6.2E1,3.6E1,1.5E1,4.29E2,7E0,7.8E1,9E0,2.34E2,1.3E1,1.2E1,2E1,7.7E1,1.1E1],"tree_param":{"num_deleted":"0","num_feature":"169","num_nodes":"47","size_leaf_vector":"1"}},{"base_weights":[6.985403E2,-5.1467113E4,4.4388515E6,5.2515004E4,-1.205842E6,1.2453601E6,3.649956E6,2.0390095E5,-5.252145E5,-1.3008784E6,2.3799577E5,5.5611906E5,9.293739E5,1.7704098E5,3.3539182E6,-5.606826E5,6.114659E5,-1.3508478E6,6.8180835E3,1.6226853E5,-7.965328E4,1.5425233E4,2.086627E5,-2.2702353E5,2.1175895E6,-1.3329358E5,5.1985434E5,-2.8136594E5,-4.0315038E5],"categories":[],"categories_nodes":[],"categories_segments":[],"categories_sizes":[],"default_left":[0,0,0,0,0,0,0,0,0,0,0,0,0,0,0,0,0,0,0,0,0,0,0,0,0,0,0,0,0],"id":5,"left_children":[1,3,5,7,9,-1,11,13,15,17,19,-1,-1,21,23,25,-1,27,-1,-1,-1,-1,-1,-1,-1,-1,-1,-1,-1],"loss_changes":[9.18714E14,4.70793E14,3.784215E13,3.14701E14,4.450301E13,0E0,1.4325629E13,2.4117037E14,8.608193E13,2.0232316E13,5.7752976E12,0E0,0E0,2.3012279E14,6.378821E14,6.7476973E13,0E0,1.2742598E13,0E0,0E0,0E0,0E0,0E0,0E0,0E0,0E0,0E0,0E0,0E0],"parents":[2147483647,0,0,1,1,2,2,3,3,4,4,6,6,7,7,8,8,9,9,10,10,13,13,14,14,15,15,17,17],"right_children":[2,4,6,8,10,-1,12,14,16,18,20,-1,-1,22,24,26,-1,28,-1,-1,-1,-1,-1,-1,-1,-1,-1,-1,-1],"split_conditions":[1E0,1E0,1E0,1E0,1E0,1.2453601E6,1E0,1E0,1E0,1E0,1E0,5.5611906E5,9.293739E5,1E0,1E0,1E0,6.114659E5,1E0,6.8180835E3,1.6226853E5,-7.965328E4,1.5425233E4,2.086627E5,-2.2702353E5,2.1175895E6,-1.3329358E5,5.1985434E5,-2.8136594E5,-4.0315038E5],"split_indices":[164,11,0,8,137,0,8,33,74,2,0,0,0,2,4,30,0,4,0,0,0,0,0,0,0,0,0,0,0],"split_type":[0,0,0,0,0,0,0,0,0,0,0,0,0,0,0,0,0,0,0,0,0,0,0,0,0,0,0,0,0],"sum_hessian":[3.968E3,3.922E3,4.6E1,3.598E3,3.24E2,1.9E1,2.7E1,2.851E3,7.47E2,3.04E2,2E1,8E0,1.9E1,2.827E3,2.4E1,7.39E2,8E0,2.93E2,1.1E1,1.1E1,9E0,2.47E3,3.57E2,1.4E1,1E1,7.31E2,8E0,2.39E2,5.4E1],"tree_param":{"num_deleted":"0","num_feature":"169","num_nodes":"29","size_leaf_vector":"1"}},{"base_weights":[6.737694E2,4.038301E5,-7.881862E5,5.9225844E5,-9.347111E5,-8.275152E5,2.093269E6,4.80435E5,2.26656E6,-9.902866E5,6.6191695E4,-7.7523144E5,-2.0534449E6,3.5064244E5,6.524939E5,4.4563762E5,1.03323156E6,2.6107212E6,1.5052958E6,-1.04491844E6,1.3827379E4,-8.0683956E5,3.3920444E5,-2.1671725E6,-3.3012912E5,1.1094092E5,-3.5446088E5,5.1255184E5,8.060742E5,4.0154238E5,2.4271764E5,-2.2218078E5,-4.3098047E5,1.1713435E5,-1.4307505E5,-1.7261342E5,-3.5275428E5,-1.9791211E5,4.8615694E5,-5.2113375E5,-3.8024525E5],"categories":[],"categories_nodes":[],"categories_segments":[],"categories_sizes":[],"default_left":[0,0,0,0,0,0,0,0,0,0,0,0,0,0,0,0,0,0,0,0,0,0,0,0,0,0,0,0,0,0,0,0,0,0,0,0,0,0,0,0,0],"id":6,"left_children":[1,3,5,7,9,11,13,15,17,19,-1,21,23,-1,-1,25,-1,27,29,31,33,35,37,39,-1,-1,-1,-1,-1,-1,-1,-1,-1,-1,-1,-1,-1,-1,-1,-1,-1],"loss_changes":[1.262022E15,6.6240784E14,1.5226639E14,4.309044E14,2.216401E13,8.471051E13,7.357707E12,3.085691E14,3.7360847E13,1.7012466E13,0E0,4.476698E13,3.2887538E12,0E0,0E0,2.0523481E14,0E0,3.1226895E13,5.1811986E12,1.4519271E13,5.334137E12,3.716274E13,7.811419E13,2.814747E12,0E0,0E0,0E0,0E0,0E0,0E0,0E0,0E0,0E0,0E0,0E0,0E0,0E0,0E0,0E0,0E0,0E0],"parents":[2147483647,0,0,1,1,2,2,3,3,4,4,5,5,6,6,7,7,8,8,9,9,11,11,12,12,15,15,17,17,18,18,19,19,20,20,21,21,22,22,23,23],"right_children":[2,4,6,8,10,12,14,16,18,20,-1,22,24,-1,-1,26,-1,28,30,32,34,36,38,40,-1,-1,-1,-1,-1,-1,-1,-1,-1,-1,-1,-1,-1,-1,-1,-1,-1],"split_conditions":[1E0,1E0,1E0,1E0,1E0,1E0,1E0,1E0,1E0,1E0,6.6191695E4,1E0,1E0,3.5064244E5,6.524939E5,1E0,1.03323156E6,1E0,1E0,1E0,1E0,1E0,1E0,1E0,-3.3012912E5,1.1094092E5,-3.5446088E5,5.1255184E5,8.060742E5,4.0154238E5,2.4271764E5,-2.2218078E5,-4.3098047E5,1.1713435E5,-1.4307505E5,-1.7261342E5,-3.5275428E5,-1.9791211E5,4.8615694E5,-5.2113375E5,-3.8024525E5],"split_indices":[12,11,44,136,3,95,130,24,168,99,0,130,136,0,0,79,0,102,0,135,9,3,165,168,0,0,0,0,0,0,0,0,0,0,0,0,0,0,0,0,0],"split_type":[0,0,0,0,0,0,0,0,0,0,0,0,0,0,0,0,0,0,0,0,0,0,0,0,0,0,0,0,0,0,0,0,0,0,0,0,0,0,0,0,0],"sum_hessian":[3.968E3,2.626E3,1.342E3,2.302E3,3.24E2,1.324E3,1.8E1,2.158E3,1.44E2,3.1E2,1.4E1,1.27E3,5.4E1,1.1E1,7E0,2.14E3,1.8E1,9.9E1,4.5E1,2.94E2,1.6E1,1.235E3,3.5E1,4.5E1,9E0,2.091E3,4.9E1,7.4E1,2.5E1,2.7E1,1.8E1,2.76E2,1.8E1,9E0,7E0,1.174E3,6.1E1,2.1E1,1.4E1,3.4E1,1.1E1],"tree_param":{"num_deleted":"0","num_feature":"169","num_nodes":"41","size_leaf_vector":"1"}},{"base_weights":[5.643647E2,7.912652E5,-4.567596E5,4.6919534E5,1.7953774E6,-6.0433975E5,4.835868E5,8.856433E5,-1.0686784E5,3.0588465E6,8.6073306E5,-6.6423325E5,1.9192027E5,3.368478E5,1.3125239E6,7.957248E5,1.246158E6,-1.7852442E5,4.885079E5,2.8437135E6,1.5289216E6,7.092286E5,5.635189E5,-6.2882894E5,-1.6068422E6,2.7424672E5,-3.2050584E5,1.6863444E5,7.72769E5,1.501973E5,5.79438E5,-2.1022543E4,-3.2625297E5,6.0723094E5,9.851141E5,1.8655794E5,-2.2996388E5,-1.4961328E5,5.594688E3,-3.7327528E5,-3.3897594E5,8.429073E4,-7.976181E4,-5.3025086E4,-8.5873805E4,1.2472916E3,6.0661975E5],"categories":[],"categories_nodes":[],"categories_segments":[],"categories_sizes":[],"default_left":[0,0,0,0,0,0,0,0,0,0,0,0,0,0,0,0,0,0,0,0,0,0,0,0,0,0,0,0,0,0,0,0,0,0,0,0,0,0,0,0,0,0,0,0,0,0,0],"id":7,"left_children":[1,3,5,7,9,11,13,15,17,19,21,23,25,27,-1,29,-1,31,-1,33,-1,35,-1,37,39,41,43,45,-1,-1,-1,-1,-1,-1,-1,-1,-1,-1,-1,-1,-1,-1,-1,-1,-1,-1,-1],"loss_changes":[1.4349268E15,4.701633E14,3.4892714E14,2.6416376E14,4.1671048E14,1.0364971E14,2.675779E14,2.6694336E14,7.5469504E13,1.1872028E14,5.040285E13,6.7347906E13,6.4253146E12,1.729899E14,0E0,1.428731E14,0E0,4.8467347E13,0E0,3.0417495E13,0E0,3.8721437E13,0E0,4.599789E13,1.32422566E11,8.287328E12,1.00479795E11,1.2988421E14,0E0,0E0,0E0,0E0,0E0,0E0,0E0,0E0,0E0,0E0,0E0,0E0,0E0,0E0,0E0,0E0,0E0,0E0,0E0],"parents":[2147483647,0,0,1,1,2,2,3,3,4,4,5,5,6,6,7,7,8,8,9,9,10,10,11,11,12,12,13,13,15,15,17,17,19,19,21,21,23,23,24,24,25,25,26,26,27,27],"right_children":[2,4,6,8,10,12,14,16,18,20,22,24,26,28,-1,30,-1,32,-1,34,-1,36,-1,38,40,42,44,46,-1,-1,-1,-1,-1,-1,-1,-1,-1,-1,-1,-1,-1,-1,-1,-1,-1,-1,-1],"split_conditions":[1E0,1E0,1E0,1E0,1E0,1E0,1E0,1E0,1E0,1E0,1E0,1E0,1E0,1E0,1.3125239E6,1E0,1.246158E6,1E0,4.885079E5,1E0,1.5289216E6,1E0,5.635189E5,1E0,1E0,1E0,1E0,1E0,7.72769E5,1.501973E5,5.79438E5,-2.1022543E4,-3.2625297E5,6.0723094E5,9.851141E5,1.8655794E5,-2.2996388E5,-1.4961328E5,5.594688E3,-3.7327528E5,-3.3897594E5,8.429073E4,-7.976181E4,-5.3025086E4,-8.5873805E4,1.2472916E3,6.0661975E5],"split_indices":[167,20,20,168,168,128,98,24,54,164,34,95,2,128,0,136,0,95,0,161,0,94,0,136,18,102,18,136,0,0,0,0,0,0,0,0,0,0,0,0,0,0,0,0,0,0,0],"split_type":[0,0,0,0,0,0,0,0,0,0,0,0,0,0,0,0,0,0,0,0,0,0,0,0,0,0,0,0,0,0,0,0,0,0,0,0,0,0,0,0,0,0,0,0,0,0,0],"sum_hessian":[3.968E3,1.454E3,2.514E3,1.101E3,3.53E2,2.173E3,3.41E2,6.39E2,4.62E2,1.5E2,2.03E2,2.021E3,1.52E2,3.32E2,9E0,6.27E2,1.2E1,4.48E2,1.4E1,1.42E2,8E0,1.86E2,1.7E1,1.948E3,7.3E1,1.31E2,2.1E1,3.15E2,1.7E1,5.85E2,4.2E1,4.2E2,2.8E1,1.3E2,1.2E1,1.74E2,1.2E1,1.846E3,1.02E2,4.7E1,2.6E1,1.13E2,1.8E1,9E0,1.2E1,2.96E2,1.9E1],"tree_param":{"num_deleted":"0","num_feature":"169","num_nodes":"47","size_leaf_vector":"1"}},{"base_weights":[6.254974E2,-9.864017E4,9.9220994E5,-1.1919953E5,3.236981E6,9.407139E5,6.2381506E5,-2.0114723E5,7.46324E5,1.0296245E6,5.500659E5,8.4174206E5,1.956367E6,-2.206809E5,6.327769E5,6.560611E5,5.6371325E5,7.8117844E5,1.6548565E6,4.6242197E5,3.8133544E5,-1.19829516E5,-1.3910161E4,1.1370292E5,3.353374E5,1.8514047E5,-2.1109852E5,5.2954325E5,1.8032673E5],"categories":[],"categories_nodes":[],"categories_segments":[],"categories_sizes":[],"default_left":[0,0,0,0,0,0,0,0,0,0,0,0,0,0,0,0,0,0,0,0,0,0,0,0,0,0,0,0,0],"id":8,"left_children":[1,3,5,7,9,11,-1,13,15,-1,-1,17,19,21,-1,23,-1,25,27,-1,-1,-1,-1,-1,-1,-1,-1,-1,-1],"loss_changes":[3.9059104E14,2.4740716E14,3.2844286E13,2.5429775E14,2.2327488E13,3.512827E13,0E0,1.9284912E14,4.9072853E13,0E0,0E0,1.5634084E13,4.556524E11,1.6122747E14,0E0,3.7032173E13,0E0,2.1434219E13,1.2988442E13,0E0,0E0,0E0,0E0,0E0,0E0,0E0,0E0,0E0,0E0],"parents":[2147483647,0,0,1,1,2,2,3,3,4,4,5,5,7,7,8,8,11,11,12,12,13,13,15,15,17,17,18,18],"right_children":[2,4,6,8,10,12,-1,14,16,-1,-1,18,20,22,-1,24,-1,26,28,-1,-1,-1,-1,-1,-1,-1,-1,-1,-1],"split_conditions":[1E0,1E0,1E0,1E0,1E0,1E0,6.2381506E5,1E0,1E0,1.0296245E6,5.500659E5,1E0,1E0,1E0,6.327769E5,1E0,5.6371325E5,1E0,1E0,4.6242197E5,3.8133544E5,-1.19829516E5,-1.3910161E4,1.1370292E5,3.353374E5,1.8514047E5,-2.1109852E5,5.2954325E5,1.8032673E5],"split_indices":[22,13,154,43,5,59,0,24,21,0,0,107,1,5,0,3,0,82,105,0,0,0,0,0,0,0,0,0,0],"split_type":[0,0,0,0,0,0,0,0,0,0,0,0,0,0,0,0,0,0,0,0,0,0,0,0,0,0,0,0,0],"sum_hessian":[3.968E3,3.607E3,3.61E2,3.585E3,2.2E1,3.51E2,1E1,3.275E3,3.1E2,8E0,1.4E1,3.2E2,3.1E1,3.254E3,2.1E1,2.95E2,1.5E1,2.98E2,2.2E1,2.2E1,9E0,1.098E3,2.156E3,2.5E2,4.5E1,2.91E2,7E0,1.2E1,1E1],"tree_param":{"num_deleted":"0","num_feature":"169","num_nodes":"29","size_leaf_vector":"1"}},{"base_weights":[6.168271E2,-3.1947914E4,2.7711615E6,-1.0588812E5,5.398733E5,2.2073348E6,1.1338621E6,-1.23253586E5,2.2801058E6,4.6276572E5,1.7388819E6,3.2191655E6,2.7830762E5,-6.775032E4,-8.1794256E5,-1.429064E5,1.4885924E6,7.473917E5,8.7230484E4,5.0760956E5,1.5550542E5,3.4544278E5,1.3064276E6,-2.5616587E3,-1.8571478E5,-1.1382974E5,-2.235692E5,9.013326E4,2.0087222E5,4.0567125E4,-2.5082825E5],"categories":[],"categories_nodes":[],"categories_segments":[],"categories_sizes":[],"default_left":[0,0,0,0,0,0,0,0,0,0,0,0,0,0,0,0,0,0,0,0,0,0,0,0,0,0,0,0,0,0,0],"id":9,"left_children":[1,3,5,7,9,11,-1,13,15,17,19,21,-1,23,25,-1,-1,27,29,-1,-1,-1,-1,-1,-1,-1,-1,-1,-1,-1,-1],"loss_changes":[3.5801908E14,1.6583439E14,5.7844318E13,1.4393216E14,4.1440017E13,3.603001E13,0E0,1.3294459E14,3.1768665E14,4.511053E13,1.4528289E13,7.7960485E13,0E0,1.3636039E14,1.393524E13,0E0,0E0,1.2069001E13,2.0391565E13,0E0,0E0,0E0,0E0,0E0,0E0,0E0,0E0,0E0,0E0,0E0,0E0],"parents":[2147483647,0,0,1,1,2,2,3,3,4,4,5,5,7,7,8,8,9,9,10,10,11,11,13,13,14,14,17,17,18,18],"right_children":[2,4,6,8,10,12,-1,14,16,18,20,22,-1,24,26,-1,-1,28,30,-1,-1,-1,-1,-1,-1,-1,-1,-1,-1,-1,-1],"split_conditions":[1E0,1E0,1E0,1E0,1E0,1E0,1.1338621E6,1E0,1E0,1E0,1E0,1E0,2.7830762E5,1E0,1E0,-1.429064E5,1.4885924E6,1E0,1E0,5.0760956E5,1.5550542E5,3.4544278E5,1.3064276E6,-2.5616587E3,-1.8571478E5,-1.1382974E5,-2.235692E5,9.013326E4,2.0087222E5,4.0567125E4,-2.5082825E5],"split_indices":[164,96,80,33,136,1,0,165,135,1,41,135,0,135,11,0,0,5,11,0,0,0,0,0,0,0,0,0,0,0,0],"split_type":[0,0,0,0,0,0,0,0,0,0,0,0,0,0,0,0,0,0,0,0,0,0,0,0,0,0,0,0,0,0,0],"sum_hessian":[3.968E3,3.922E3,4.6E1,3.473E3,4.49E2,3.7E1,9E0,3.448E3,2.5E1,4.22E2,2.7E1,1.8E1,1.9E1,3.193E3,2.55E2,1.5E1,1E1,2.4E2,1.82E2,1.8E1,9E0,1.1E1,7E0,2.972E3,2.21E2,9.2E1,1.63E2,7.1E1,1.69E2,1.69E2,1.3E1],"tree_param":{"num_deleted":"0","num_feature":"169","num_nodes":"31","size_leaf_vector":"1"}},{"base_weights":[5.946145E2,5.8893775E5,-3.3969012E5,8.7069525E5,-5.9232025E5,-4.4912862E5,3.5762684E5,1.8590098E6,1.14060195E5,-7.865623E5,1.4742615E6,-5.053122E5,-8.858403E4,2.683636E5,1.0244228E6,1.6261534E6,2.4309432E6,7.319167E4,8.776266E5,-8.5191056E5,-9.078437E4,1.1499742E6,5.0276862E5,-5.1849828E5,4.975876E5,-1.1450734E4,-3.908581E5,2.9810237E3,1.7047856E6,3.3742953E5,8.021261E5,6.3847544E5,2.739083E5,-4.19258E4,1.482436E5,-1.773573E5,-2.6265603E5,6.292948E4,-6.816695E4,1.531741E5,4.052771E5,-1.0879204E5,-2.3553452E5,-1.437611E4,3.4897906E5,-2.3644896E4,9.4280625E5,4.2290188E5,1.2837676E5],"categories":[],"categories_nodes":[],"categories_segments":[],"categories_sizes":[],"default_left":[0,0,0,0,0,0,0,0,0,0,0,0,0,0,0,0,0,0,0,0,0,0,0,0,0,0,0,0,0,0,0,0,0,0,0,0,0,0,0,0,0,0,0,0,0,0,0,0,0],"id":10,"left_children":[1,3,5,7,9,11,13,15,17,19,21,23,25,27,-1,29,31,33,-1,35,37,39,-1,41,-1,43,-1,45,47,-1,-1,-1,-1,-1,-1,-1,-1,-1,-1,-1,-1,-1,-1,-1,-1,-1,-1,-1,-1],"loss_changes":[7.944503E14,4.840172E14,1.9187538E14,8.7796305E14,1.1255287E14,4.401533E13,1.2761693E14,6.7405754E13,1.0289486E14,1.163661E13,5.6847583E12,6.746756E13,3.726834E13,1.2735886E14,0E0,8.825218E13,7.226175E13,1.0004201E14,0E0,4.6087516E12,1.7456768E12,5.1026267E12,0E0,3.4526705E13,0E0,2.2961497E13,0E0,1.2769876E14,1.0220932E13,0E0,0E0,0E0,0E0,0E0,0E0,0E0,0E0,0E0,0E0,0E0,0E0,0E0,0E0,0E0,0E0,0E0,0E0,0E0,0E0],"parents":[2147483647,0,0,1,1,2,2,3,3,4,4,5,5,6,6,7,7,8,8,9,9,10,10,11,11,12,12,13,13,15,15,16,16,17,17,19,19,20,20,21,21,23,23,25,25,27,27,28,28],"right_children":[2,4,6,8,10,12,14,16,18,20,22,24,26,28,-1,30,32,34,-1,36,38,40,-1,42,-1,44,-1,46,48,-1,-1,-1,-1,-1,-1,-1,-1,-1,-1,-1,-1,-1,-1,-1,-1,-1,-1,-1,-1],"split_conditions":[1E0,1E0,1E0,1E0,1E0,1E0,1E0,1E0,1E0,1E0,1E0,1E0,1E0,1E0,1.0244228E6,1E0,1E0,1E0,8.776266E5,1E0,1E0,1E0,5.0276862E5,1E0,4.975876E5,1E0,-3.908581E5,1E0,1E0,3.3742953E5,8.021261E5,6.3847544E5,2.739083E5,-4.19258E4,1.482436E5,-1.773573E5,-2.6265603E5,6.292948E4,-6.816695E4,1.531741E5,4.052771E5,-1.0879204E5,-2.3553452E5,-1.437611E4,3.4897906E5,-2.3644896E4,9.4280625E5,4.2290188E5,1.2837676E5],"split_indices":[167,165,20,168,130,96,33,20,33,96,97,127,42,96,0,107,0,20,0,4,11,30,0,135,0,130,0,110,4,0,0,0,0,0,0,0,0,0,0,0,0,0,0,0,0,0,0,0,0],"split_type":[0,0,0,0,0,0,0,0,0,0,0,0,0,0,0,0,0,0,0,0,0,0,0,0,0,0,0,0,0,0,0,0,0,0,0,0,0,0,0,0,0,0,0,0,0,0,0,0,0],"sum_hessian":[3.968E3,1.454E3,2.514E3,1.174E3,2.8E2,2.173E3,3.41E2,5.09E2,6.65E2,2.56E2,2.4E1,1.88E3,2.93E2,3.34E2,7E0,3.62E2,1.47E2,6.58E2,7E0,2.34E2,2.2E1,1.7E1,7E0,1.871E3,9E0,2.8E2,1.3E1,2.82E2,5.2E1,3.4E2,2.2E1,1.1E2,3.7E1,4.56E2,2.02E2,1.95E2,3.9E1,8E0,1.4E1,1E1,7E0,1.755E3,1.16E2,2.71E2,9E0,2.75E2,7E0,4.5E1,7E0],"tree_param":{"num_deleted":"0","num_feature":"169","num_nodes":"49","size_leaf_vector":"1"}},{"base_weights":[6.181668E2,-1.8556134E5,1.4097689E6,-2.1139289E5,1.7531041E6,1.4880569E6,-6.4082844E5,-2.299612E5,4.4505744E5,1.2480598E6,1.0146856E6,1.5711525E6,-3.7785806E5,-2.1574339E5,-4.0363215E4,-3.0106053E5,2.7001862E5,2.3556062E5,4.084149E5,1.5252119E6,8.8397056E5,-4.5986647E5,1.3563694E5,-7.1773414E4,4.1125806E5,5.405944E4,4.5602012E5,3.6134278E5,-1.4536108E5],"categories":[],"categories_nodes":[],"categories_segments":[],"categories_sizes":[],"default_left":[0,0,0,0,0,0,0,0,0,0,0,0,0,0,0,0,0,0,0,0,0,0,0,0,0,0,0,0,0],"id":11,"left_children":[1,3,5,7,9,11,13,15,-1,17,-1,19,21,-1,-1,23,25,-1,-1,27,-1,-1,-1,-1,-1,-1,-1,-1,-1],"loss_changes":[1.0410769E15,1.7556806E14,7.444004E13,1.4067152E14,6.3618062E13,6.9226954E13,2.4922434E12,1.2194211E14,0E0,4.2697344E12,0E0,4.565993E13,3.1329188E13,0E0,0E0,1.1470445E14,2.2276137E13,0E0,0E0,7.3589835E13,0E0,0E0,0E0,0E0,0E0,0E0,0E0,0E0,0E0],"parents":[2147483647,0,0,1,1,2,2,3,3,4,4,5,5,6,6,7,7,9,9,11,11,12,12,15,15,16,16,19,19],"right_children":[2,4,6,8,10,12,14,16,-1,18,-1,20,22,-1,-1,24,26,-1,-1,28,-1,-1,-1,-1,-1,-1,-1,-1,-1],"split_conditions":[1E0,1E0,1E0,1E0,1E0,1E0,1E0,1E0,4.4505744E5,1E0,1.0146856E6,1E0,1E0,-2.1574339E5,-4.0363215E4,1E0,1E0,2.3556062E5,4.084149E5,1E0,8.8397056E5,-4.5986647E5,1.3563694E5,-7.1773414E4,4.1125806E5,5.405944E4,4.5602012E5,3.6134278E5,-1.4536108E5],"split_indices":[166,164,52,44,18,132,5,96,0,3,0,108,102,0,0,152,107,0,0,53,0,0,0,0,0,0,0,0,0],"split_type":[0,0,0,0,0,0,0,0,0,0,0,0,0,0,0,0,0,0,0,0,0,0,0,0,0,0,0,0,0],"sum_hessian":[3.968E3,3.505E3,4.63E2,3.459E3,4.6E1,4.46E2,1.7E1,3.43E3,2.9E1,3.9E1,7E0,4.27E2,1.9E1,1E1,7E0,3.003E3,4.27E2,2.9E1,1E1,4.19E2,8E0,7E0,1.2E1,2.978E3,2.5E1,4.2E2,7E0,4.04E2,1.5E1],"tree_param":{"num_deleted":"0","num_feature":"169","num_nodes":"29","size_leaf_vector":"1"}},{"base_weights":[5.666282E2,1.7748064E5,-3.4560278E5,1.23767055E5,1.03904856E6,-3.1110244E5,-1.04441094E6,2.0029602E5,-4.0208312E5,1.1213046E6,-3.258284E4,-5.1600697E5,-1.8672048E5,-1.180839E6,-7.128224E4,1.8617138E5,6.593978E5,-4.612816E5,7.731797E5,9.679715E5,1.295818E6,-4.9252547E5,-1.0838689E6,-2.0600622E5,3.8070338E5,-1.1006746E6,-3.3170572E5,3.232064E4,2.4385556E5,-1.19098266E5,1.0931494E5,7.6218766E4,2.8302897E5,1.9558097E5,3.6320816E5,3.7715984E5,2.430176E5,-1.0382218E5,-1.8659677E5,-1.7853984E5,-3.3038697E5,-5.1722668E4,2.4886403E5,-2.918379E5,-1.874501E5],"categories":[],"categories_nodes":[],"categories_segments":[],"categories_sizes":[],"default_left":[0,0,0,0,0,0,0,0,0,0,0,0,0,0,0,0,0,0,0,0,0,0,0,0,0,0,0,0,0,0,0,0,0,0,0,0,0,0,0,0,0,0,0,0,0],"id":12,"left_children":[1,3,5,7,9,11,13,15,17,19,-1,21,23,25,-1,27,-1,29,31,33,35,37,39,41,-1,43,-1,-1,-1,-1,-1,-1,-1,-1,-1,-1,-1,-1,-1,-1,-1,-1,-1,-1,-1],"loss_changes":[2.4302138E14,1.2151753E14,3.2324327E13,9.9492204E13,1.502247E13,3.259006E13,6.226222E12,8.317343E13,2.188878E13,3.7305146E12,0E0,6.388395E12,2.8879775E13,1.08669383E12,0E0,8.194123E13,0E0,1.9301604E13,3.1371412E12,4.778906E12,5.3263634E12,4.8218306E12,2.0159566E12,2.4710398E13,0E0,2.1040726E12,0E0,0E0,0E0,0E0,0E0,0E0,0E0,0E0,0E0,0E0,0E0,0E0,0E0,0E0,0E0,0E0,0E0,0E0,0E0],"parents":[2147483647,0,0,1,1,2,2,3,3,4,4,5,5,6,6,7,7,8,8,9,9,11,11,12,12,13,13,15,15,17,17,18,18,19,19,20,20,21,21,22,22,23,23,25,25],"right_children":[2,4,6,8,10,12,14,16,18,20,-1,22,24,26,-1,28,-1,30,32,34,36,38,40,42,-1,44,-1,-1,-1,-1,-1,-1,-1,-1,-1,-1,-1,-1,-1,-1,-1,-1,-1,-1,-1],"split_conditions":[1E0,1E0,1E0,1E0,1E0,1E0,1E0,1E0,1E0,1E0,-3.258284E4,1E0,1E0,1E0,-7.128224E4,1E0,6.593978E5,1E0,1E0,1E0,1E0,1E0,1E0,1E0,3.8070338E5,1E0,-3.3170572E5,3.232064E4,2.4385556E5,-1.19098266E5,1.0931494E5,7.6218766E4,2.8302897E5,1.9558097E5,3.6320816E5,3.7715984E5,2.430176E5,-1.0382218E5,-1.8659677E5,-1.7853984E5,-3.3038697E5,-5.1722668E4,2.4886403E5,-2.918379E5,-1.874501E5],"split_indices":[12,136,3,11,11,5,136,33,163,3,0,126,127,109,0,107,0,137,5,105,0,95,98,35,0,0,0,0,0,0,0,0,0,0,0,0,0,0,0,0,0,0,0,0,0],"split_type":[0,0,0,0,0,0,0,0,0,0,0,0,0,0,0,0,0,0,0,0,0,0,0,0,0,0,0,0,0,0,0,0,0,0,0,0,0,0,0,0,0,0,0,0,0],"sum_hessian":[3.968E3,2.626E3,1.342E3,2.472E3,1.54E2,1.279E3,6.3E1,2.158E3,3.14E2,1.44E2,1E1,4.83E2,7.96E2,5.3E1,1E1,2.147E3,1.1E1,2.99E2,1.5E1,7.7E1,6.7E1,4.64E2,1.9E1,7.88E2,8E0,4.2E1,1.1E1,2.05E3,9.7E1,2.79E2,2E1,8E0,7E0,6.7E1,1E1,2.4E1,4.3E1,4.25E2,3.9E1,1.1E1,8E0,7.74E2,1.4E1,2.4E1,1.8E1],"tree_param":{"num_deleted":"0","num_feature":"169","num_nodes":"45","size_leaf_vector":"1"}},{"base_weights":[4.725542E2,1.04618836E5,-2.703683E5,1.5240622E5,-3.473335E5,-2.9464234E5,7.82427E5,1.2558408E5,9.934132E5,-4.8267884E5,1.0586668E6,-3.3631866E5,1.003076E6,8.91723E4,7.025936E5,1.3379911E6,-1.1407627E5,-4.5065528E5,-3.2262044E5,1.933894E5,3.4276925E5,-3.8566622E5,7.5102106E5,1.5187272E5,3.9960078E5,1.2855692E4,1.9008894E5,1.0179623E5,6.224336E5,2.2298706E5,7.4466006E5,7.242938E4,-1.13797055E5,-1.3777872E5,-8.651965E4,-8.028213E4,-2.2004386E5,2.0109989E5,8.653125E4],"categories":[],"categories_nodes":[],"categories_segments":[],"categories_sizes":[],"default_left":[0,0,0,0,0,0,0,0,0,0,0,0,0,0,0,0,0,0,0,0,0,0,0,0,0,0,0,0,0,0,0,0,0,0,0,0,0,0,0],"id":13,"left_children":[1,3,5,7,9,11,-1,13,15,17,19,21,23,25,27,29,31,33,-1,-1,-1,35,37,-1,-1,-1,-1,-1,-1,-1,-1,-1,-1,-1,-1,-1,-1,-1,-1],"loss_changes":[1.119313E14,6.1906224E13,1.0036574E14,5.84591E13,5.2211124E13,5.9261246E13,0E0,5.2772817E13,3.0582734E13,7.5535514E12,2.0997399E12,5.6965024E13,8.527427E12,5.720223E13,7.685322E13,4.146593E13,3.2779907E12,2.5649427E12,0E0,0E0,0E0,1.7315228E13,2.3771742E12,0E0,0E0,0E0,0E0,0E0,0E0,0E0,0E0,0E0,0E0,0E0,0E0,0E0,0E0,0E0,0E0],"parents":[2147483647,0,0,1,1,2,2,3,3,4,4,5,5,7,7,8,8,9,9,10,10,11,11,12,12,13,13,14,14,15,15,16,16,17,17,21,21,22,22],"right_children":[2,4,6,8,10,12,-1,14,16,18,20,22,24,26,28,30,32,34,-1,-1,-1,36,38,-1,-1,-1,-1,-1,-1,-1,-1,-1,-1,-1,-1,-1,-1,-1,-1],"split_conditions":[1E0,1E0,1E0,1E0,1E0,1E0,7.82427E5,1E0,1E0,1E0,1E0,1E0,1E0,1E0,1E0,1E0,1E0,1E0,-3.2262044E5,1.933894E5,3.4276925E5,1E0,1E0,1.5187272E5,3.9960078E5,1.2855692E4,1.9008894E5,1.0179623E5,6.224336E5,2.2298706E5,7.4466006E5,7.242938E4,-1.13797055E5,-1.3777872E5,-8.651965E4,-8.028213E4,-2.2004386E5,2.0109989E5,8.653125E4],"split_indices":[18,165,164,107,130,130,0,128,105,132,30,67,10,67,22,2,22,11,0,0,0,66,168,0,0,0,0,0,0,0,0,0,0,0,0,0,0,0,0],"split_type":[0,0,0,0,0,0,0,0,0,0,0,0,0,0,0,0,0,0,0,0,0,0,0,0,0,0,0,0,0,0,0,0,0,0,0,0,0,0,0],"sum_hessian":[3.968E3,2.866E3,1.102E3,2.592E3,2.74E2,1.095E3,7E0,2.512E3,8E1,2.5E2,2.4E1,1.061E3,3.4E1,2.363E3,1.49E2,6.1E1,1.9E1,2.42E2,8E0,1.7E1,7E0,1.015E3,4.6E1,2.4E1,1E1,2.267E3,9.6E1,1.33E2,1.6E1,5.2E1,9E0,9E0,1E1,7E1,1.72E2,9.68E2,4.7E1,3.3E1,1.3E1],"tree_param":{"num_deleted":"0","num_feature":"169","num_nodes":"39","size_leaf_vector":"1"}},{"base_weights":[4.4596936E2,-1.3357916E5,1.014852E6,-2.2638288E5,3.596538E5,9.5573525E5,8.895799E5,-2.342134E5,5.8964194E5,2.7167528E5,5.365463E5,9.090814E5,7.261139E5,-2.6332303E5,4.7457316E5,2.2300505E5,7.689296E5,8.2185244E5,2.109009E6,-6.068513E4,4.415911E5,9.037999E4,2.7799206E5,4.0181492E4,6.8637556E5,1.7443269E5,5.649295E5,5.2618906E5,3.9332566E5],"categories":[],"categories_nodes":[],"categories_segments":[],"categories_sizes":[],"default_left":[0,0,0,0,0,0,0,0,0,0,0,0,0,0,0,0,0,0,0,0,0,0,0,0,0,0,0,0,0],"id":14,"left_children":[1,3,5,7,9,11,-1,13,-1,15,-1,17,-1,19,21,23,-1,25,27,-1,-1,-1,-1,-1,-1,-1,-1,-1,-1],"loss_changes":[5.3950014E14,1.6045008E14,8.007849E13,6.582972E13,9.882973E13,4.7828252E13,0E0,6.0715403E13,0E0,8.139164E13,0E0,4.6414604E13,0E0,4.0242418E13,6.3894035E12,6.5773347E13,0E0,3.2472973E13,2.0853996E12,0E0,0E0,0E0,0E0,0E0,0E0,0E0,0E0,0E0,0E0],"parents":[2147483647,0,0,1,1,2,2,3,3,4,4,5,5,7,7,9,9,11,11,13,13,14,14,15,15,17,17,18,18],"right_children":[2,4,6,8,10,12,-1,14,-1,16,-1,18,-1,20,22,24,-1,26,28,-1,-1,-1,-1,-1,-1,-1,-1,-1,-1],"split_conditions":[1E0,1E0,1E0,1E0,1E0,1E0,8.895799E5,1E0,5.8964194E5,1E0,5.365463E5,1E0,7.261139E5,1E0,1E0,1E0,7.689296E5,1E0,1E0,-6.068513E4,4.415911E5,9.037999E4,2.7799206E5,4.0181492E4,6.8637556E5,1.7443269E5,5.649295E5,5.2618906E5,3.9332566E5],"split_indices":[166,20,109,13,128,154,0,67,0,164,0,100,0,7,3,33,0,110,20,0,0,0,0,0,0,0,0,0,0],"split_type":[0,0,0,0,0,0,0,0,0,0,0,0,0,0,0,0,0,0,0,0,0,0,0,0,0,0,0,0,0],"sum_hessian":[3.968E3,3.505E3,4.63E2,2.95E3,5.55E2,4.54E2,9E0,2.942E3,8E0,5.32E2,2.3E1,4.45E2,9E0,2.826E3,1.16E2,5.24E2,8E0,4.15E2,3E1,2.818E3,8E0,1.06E2,1E1,5.16E2,8E0,4.04E2,1.1E1,1.8E1,1.2E1],"tree_param":{"num_deleted":"0","num_feature":"169","num_nodes":"29","size_leaf_vector":"1"}},{"base_weights":[5.130076E2,-1.0342775E5,7.872172E5,-1.3276136E5,7.5294525E5,7.111317E5,5.34977E5,-1.473462E5,1.551767E6,5.840503E5,3.432808E5,6.713422E5,6.378244E5,-1.6442597E5,1.080827E6,2.7515538E5,3.994628E5,2.7621006E5,1.634899E5,6.318452E5,5.6453356E5,-3.9647855E4,2.9724844E5,-2.2629228E5,3.2781466E5,1.2967011E5,3.9832633E4,1.505243E5,-1.7096392E5],"categories":[],"categories_nodes":[],"categories_segments":[],"categories_sizes":[],"default_left":[0,0,0,0,0,0,0,0,0,0,0,0,0,0,0,0,0,0,0,0,0,0,0,0,0,0,0,0,0],"id":15,"left_children":[1,3,5,7,9,11,-1,13,15,-1,17,19,-1,21,23,-1,-1,25,-1,27,-1,-1,-1,-1,-1,-1,-1,-1,-1],"loss_changes":[3.2448216E14,8.805993E13,5.5871015E13,8.32882E13,8.755984E13,3.7166567E13,0E0,7.050228E13,1.9228829E12,0E0,2.4250417E12,3.1349956E13,0E0,5.8051583E13,3.6326527E13,0E0,0E0,2.403569E12,0E0,2.202996E13,0E0,0E0,0E0,0E0,0E0,0E0,0E0,0E0,0E0],"parents":[2147483647,0,0,1,1,2,2,3,3,4,4,5,5,7,7,8,8,10,10,11,11,13,13,14,14,17,17,19,19],"right_children":[2,4,6,8,10,12,-1,14,16,-1,18,20,-1,22,24,-1,-1,26,-1,28,-1,-1,-1,-1,-1,-1,-1,-1,-1],"split_conditions":[1E0,1E0,1E0,1E0,1E0,1E0,5.34977E5,1E0,1E0,5.840503E5,1E0,1E0,6.378244E5,1E0,1E0,2.7515538E5,3.994628E5,1E0,1.634899E5,1E0,5.6453356E5,-3.9647855E4,2.9724844E5,-2.2629228E5,3.2781466E5,1.2967011E5,3.9832633E4,1.505243E5,-1.7096392E5],"split_indices":[166,131,148,44,167,108,0,164,167,0,3,154,0,152,5,0,0,5,0,98,0,0,0,0,0,0,0,0,0],"split_type":[0,0,0,0,0,0,0,0,0,0,0,0,0,0,0,0,0,0,0,0,0,0,0,0,0,0,0,0,0],"sum_hessian":[3.968E3,3.505E3,4.63E2,3.389E3,1.16E2,4.42E2,2.1E1,3.36E3,2.9E1,2.1E1,9.5E1,4.34E2,8E0,3.314E3,4.6E1,1.2E1,1.7E1,8.1E1,1.4E1,4.25E2,9E0,3.288E3,2.6E1,7E0,3.9E1,2E1,6.1E1,4.14E2,1.1E1],"tree_param":{"num_deleted":"0","num_feature":"169","num_nodes":"29","size_leaf_vector":"1"}},{"base_weights":[4.901344E2,-8.875166E4,4.214475E5,-9.729348E4,5.451998E5,2.8015594E5,1.5355012E6,-1.0958285E5,1.3179054E6,2.2646312E5,7.210384E5,2.5381388E6,1.03027306E6,7.2077016E4,-2.0062264E5,3.6008244E5,2.3942888E5,1.9603069E5,6.270492E5,6.0752656E5,4.9632028E5,7.2778244E5,4.554511E5,2.7635531E4,-3.3411125E5,-4.0844758E4,-1.6571373E5,3.1898137E4,3.478667E5,2.3198292E5,-1.5665042E5],"categories":[],"categories_nodes":[],"categories_segments":[],"categories_sizes":[],"default_left":[0,0,0,0,0,0,0,0,0,0,0,0,0,0,0,0,0,0,0,0,0,0,0,0,0,0,0,0,0,0,0],"id":16,"left_children":[1,3,5,7,-1,9,11,13,15,17,-1,19,21,23,25,-1,-1,27,-1,-1,-1,29,-1,-1,-1,-1,-1,-1,-1,-1,-1],"loss_changes":[1.4907332E14,7.027219E13,1.09212756E14,5.676598E13,0E0,9.666893E13,3.930088E13,5.3504417E13,1.8439628E12,4.7094694E13,0E0,8.091316E11,1.5517155E13,8.53621E13,2.2033753E13,0E0,0E0,4.3791877E13,0E0,0E0,0E0,1.7388328E13,0E0,0E0,0E0,0E0,0E0,0E0,0E0,0E0,0E0],"parents":[2147483647,0,0,1,1,2,2,3,3,5,5,6,6,7,7,8,8,9,9,11,11,12,12,13,13,14,14,17,17,21,21],"right_children":[2,4,6,8,-1,10,12,14,16,18,-1,20,22,24,26,-1,-1,28,-1,-1,-1,30,-1,-1,-1,-1,-1,-1,-1,-1,-1],"split_conditions":[1E0,1E0,1E0,1E0,5.451998E5,1E0,1E0,1E0,1E0,1E0,7.210384E5,1E0,1E0,1E0,1E0,3.6008244E5,2.3942888E5,1E0,6.270492E5,6.0752656E5,4.9632028E5,1E0,4.554511E5,2.7635531E4,-3.3411125E5,-4.0844758E4,-1.6571373E5,3.1898137E4,3.478667E5,2.3198292E5,-1.5665042E5],"split_indices":[20,25,96,44,0,66,167,167,0,148,0,128,128,132,66,0,0,51,0,0,0,8,0,0,0,0,0,0,0,0,0],"split_type":[0,0,0,0,0,0,0,0,0,0,0,0,0,0,0,0,0,0,0,0,0,0,0,0,0,0,0,0,0,0,0],"sum_hessian":[3.968E3,3.274E3,6.94E2,3.263E3,1.1E1,6.16E2,7.8E1,3.235E3,2.8E1,6.05E2,1.1E1,2.6E1,5.2E1,1.08E3,2.155E3,1.3E1,1.5E1,5.98E2,7E0,1.7E1,9E0,4E1,1.2E1,1.046E3,3.4E1,2.081E3,7.4E1,5.75E2,2.3E1,3.3E1,7E0],"tree_param":{"num_deleted":"0","num_feature":"169","num_nodes":"31","size_leaf_vector":"1"}},{"base_weights":[4.8059128E2,-7.40137E4,5.6431106E5,-1.0156356E5,4.1737884E5,7.4780925E5,-1.9870075E6,-1.12845E5,1.2200905E6,5.0086588E5,-2.726985E5,7.014436E5,6.5145156E5,-1.7212209E6,-5.51339E5,-1.22837516E5,1.301347E6,5.913303E5,5.428544E5,8.240642E5,6.3633496E3,7.37921E5,-3.2539878E5,-4.244438E5,-3.2696928E5,-3.1797283E4,8.234792E4,-6.818256E4,7.581131E5,-2.7155944E5,3.5214784E5,2.0381234E5,6.70362E3,-1.4064475E5,6.670717E4,1.7848828E5,-1.659364E5],"categories":[],"categories_nodes":[],"categories_segments":[],"categories_sizes":[],"default_left":[0,0,0,0,0,0,0,0,0,0,0,0,0,0,0,0,0,0,0,0,0,0,0,0,0,0,0,0,0,0,0,0,0,0,0,0,0],"id":17,"left_children":[1,3,5,7,9,11,13,15,17,19,-1,21,-1,23,-1,25,27,-1,29,31,33,35,-1,-1,-1,-1,-1,-1,-1,-1,-1,-1,-1,-1,-1,-1,-1],"loss_changes":[1.666729E14,4.745557E13,2.1695459E14,4.9502057E13,2.5376147E13,4.2821847E13,3.4085766E12,4.6523644E13,2.6652885E13,2.830402E13,0E0,3.3252811E13,0E0,6.158203E11,0E0,2.9533688E13,7.67463E13,0E0,3.4353313E13,6.953057E12,1.2860304E13,3.40453E13,0E0,0E0,0E0,0E0,0E0,0E0,0E0,0E0,0E0,0E0,0E0,0E0,0E0,0E0,0E0],"parents":[2147483647,0,0,1,1,2,2,3,3,4,4,5,5,6,6,7,7,8,8,9,9,11,11,13,13,15,15,16,16,18,18,19,19,20,20,21,21],"right_children":[2,4,6,8,10,12,14,16,18,20,-1,22,-1,24,-1,26,28,-1,30,32,34,36,-1,-1,-1,-1,-1,-1,-1,-1,-1,-1,-1,-1,-1,-1,-1],"split_conditions":[1E0,1E0,1E0,1E0,1E0,1E0,1E0,1E0,1E0,1E0,-2.726985E5,1E0,6.5145156E5,1E0,-5.51339E5,1E0,1E0,5.913303E5,1E0,1E0,1E0,1E0,-3.2539878E5,-4.244438E5,-3.2696928E5,-3.1797283E4,8.234792E4,-6.818256E4,7.581131E5,-2.7155944E5,3.5214784E5,2.0381234E5,6.70362E3,-1.4064475E5,6.670717E4,1.7848828E5,-1.659364E5],"split_indices":[166,136,12,152,80,109,0,33,167,12,0,143,0,5,0,67,4,0,5,11,5,52,0,0,0,0,0,0,0,0,0,0,0,0,0,0,0],"split_type":[0,0,0,0,0,0,0,0,0,0,0,0,0,0,0,0,0,0,0,0,0,0,0,0,0,0,0,0,0,0,0,0,0,0,0,0,0],"sum_hessian":[3.968E3,3.505E3,4.63E2,3.319E3,1.86E2,4.32E2,3.1E1,3.291E3,2.8E1,1.77E2,9E0,4.23E2,9E0,2E1,1.1E1,3.268E3,2.3E1,9E0,1.9E1,1.07E2,7E1,4.16E2,7E0,1.2E1,8E0,3.149E3,1.19E2,1.3E1,1E1,7E0,1.2E1,9.7E1,1E1,2.2E1,4.8E1,4.01E2,1.5E1],"tree_param":{"num_deleted":"0","num_feature":"169","num_nodes":"37","size_leaf_vector":"1"}},{"base_weights":[3.8047543E2,-1.9791996E4,6.30479E5,5.716169E4,-1.6921758E5,4.1392216E5,4.6510575E5,4.9141465E4,4.2358156E5,-1.3539447E5,-8.832226E5,2.9077028E5,2.9146225E5,6.972638E4,-6.41999E5,-7.427448E4,-3.854798E5,-9.745198E5,-1.7002589E5,1.469404E5,9.3756606E5,1.2231153E4,2.045961E5,-1.783395E5,-1.1611575E5,-1.975937E4,1.9719352E5,-7.664851E4,-2.9863353E5,-2.4831858E5,-1.568328E5,5.0588227E4,-3.3657895E4,1.3876219E5,2.8945053E5],"categories":[],"categories_nodes":[],"categories_segments":[],"categories_sizes":[],"default_left":[0,0,0,0,0,0,0,0,0,0,0,0,0,0,0,0,0,0,0,0,0,0,0,0,0,0,0,0,0,0,0,0,0,0,0],"id":18,"left_children":[1,3,5,7,9,11,-1,13,-1,15,17,19,-1,21,23,25,27,29,-1,31,33,-1,-1,-1,-1,-1,-1,-1,-1,-1,-1,-1,-1,-1,-1],"loss_changes":[5.043835E13,4.4215195E13,3.8213062E13,3.7149307E13,3.155434E13,1.158848E13,0E0,3.595771E13,0E0,1.907461E13,6.145872E11,8.7402107E12,0E0,3.1655117E13,1.345625E12,1.292466E13,1.0300548E13,1.1448185E12,0E0,1.784268E12,1.8347805E12,0E0,0E0,0E0,0E0,0E0,0E0,0E0,0E0,0E0,0E0,0E0,0E0,0E0,0E0],"parents":[2147483647,0,0,1,1,2,2,3,3,4,4,5,5,7,7,9,9,10,10,11,11,13,13,14,14,15,15,16,16,17,17,19,19,20,20],"right_children":[2,4,6,8,10,12,-1,14,-1,16,18,20,-1,22,24,26,28,30,-1,32,34,-1,-1,-1,-1,-1,-1,-1,-1,-1,-1,-1,-1,-1,-1],"split_conditions":[1E0,1E0,1E0,1E0,1E0,1E0,4.6510575E5,1E0,4.2358156E5,1E0,1E0,1E0,2.9146225E5,1E0,1E0,1E0,1E0,1E0,-1.7002589E5,1E0,1E0,1.2231153E4,2.045961E5,-1.783395E5,-1.1611575E5,-1.975937E4,1.9719352E5,-7.664851E4,-2.9863353E5,-2.4831858E5,-1.568328E5,5.0588227E4,-3.3657895E4,1.3876219E5,2.8945053E5],"split_indices":[131,12,168,86,3,41,0,79,0,4,102,4,0,164,10,62,79,10,0,3,102,0,0,0,0,0,0,0,0,0,0,0,0,0,0],"split_type":[0,0,0,0,0,0,0,0,0,0,0,0,0,0,0,0,0,0,0,0,0,0,0,0,0,0,0,0,0,0,0,0,0,0,0],"sum_hessian":[3.968E3,3.845E3,1.23E2,2.538E3,1.307E3,1.07E2,1.6E1,2.527E3,1.1E1,1.248E3,5.9E1,9.4E1,1.3E1,2.454E3,7.3E1,1.003E3,2.45E2,3.4E1,2.5E1,7.7E1,1.7E1,2.41E3,4.4E1,3.3E1,4E1,9.89E2,1.4E1,2.34E2,1.1E1,2.3E1,1.1E1,6.1E1,1.6E1,9E0,8E0],"tree_param":{"num_deleted":"0","num_feature":"169","num_nodes":"35","size_leaf_vector":"1"}},{"base_weights":[3.1449838E2,1.454997E5,-8.365743E4,1.2006883E5,1.4356211E6,-1.1869014E5,2.2128514E5,1.0461941E5,4.3303847E5,5.2768125E5,7.430701E5,-1.27679586E5,1.0585704E6,1.3040399E5,4.3355538E5,6.6726445E4,7.8014544E5,2.7944201E4,3.0437328E5,-1.413228E5,4.808566E5,2.7278528E5,1.8559408E5,3.8035003E5,-5.103845E5,1.0934303E4,2.6976328E5,2.2718489E5,-2.0158388E5,-3.605288E4,5.015224E4,1.9386244E5,-6.410978E3,2.5005081E5,-2.9997283E4,-1.4587694E5,1.2072566E5],"categories":[],"categories_nodes":[],"categories_segments":[],"categories_sizes":[],"default_left":[0,0,0,0,0,0,0,0,0,0,0,0,0,0,0,0,0,0,0,0,0,0,0,0,0,0,0,0,0,0,0,0,0,0,0,0,0],"id":19,"left_children":[1,3,5,7,9,11,13,15,-1,-1,17,19,21,23,-1,25,27,-1,-1,29,31,-1,-1,33,35,-1,-1,-1,-1,-1,-1,-1,-1,-1,-1,-1,-1],"loss_changes":[4.837823E13,4.76902E13,2.6860667E13,3.9738384E13,1.7527724E13,2.3879062E13,4.013781E13,3.6192477E13,0E0,0E0,6.058168E12,1.8588375E13,5.1467675E11,3.9435412E13,0E0,2.748142E13,2.8986558E13,0E0,0E0,1.5082617E13,9.524766E12,0E0,0E0,6.651358E13,1.0015149E13,0E0,0E0,0E0,0E0,0E0,0E0,0E0,0E0,0E0,0E0,0E0,0E0],"parents":[2147483647,0,0,1,1,2,2,3,3,4,4,5,5,6,6,7,7,10,10,11,11,12,12,13,13,15,15,16,16,19,19,20,20,23,23,24,24],"right_children":[2,4,6,8,10,12,14,16,-1,-1,18,20,22,24,-1,26,28,-1,-1,30,32,-1,-1,34,36,-1,-1,-1,-1,-1,-1,-1,-1,-1,-1,-1,-1],"split_conditions":[1E0,1E0,1E0,1E0,1E0,1E0,1E0,1E0,4.3303847E5,5.2768125E5,1E0,1E0,1E0,1E0,4.3355538E5,1E0,1E0,2.7944201E4,3.0437328E5,1E0,1E0,2.7278528E5,1.8559408E5,1E0,1E0,1.0934303E4,2.6976328E5,2.2718489E5,-2.0158388E5,-3.605288E4,5.015224E4,1.9386244E5,-6.410978E3,2.5005081E5,-2.9997283E4,-1.4587694E5,1.2072566E5],"split_indices":[167,131,43,120,43,44,132,100,0,0,168,71,0,18,0,109,12,0,0,136,9,0,0,12,136,0,0,0,0,0,0,0,0,0,0,0,0],"split_type":[0,0,0,0,0,0,0,0,0,0,0,0,0,0,0,0,0,0,0,0,0,0,0,0,0,0,0,0,0,0,0,0,0,0,0,0,0],"sum_hessian":[3.968E3,1.454E3,2.514E3,1.426E3,2.8E1,2.255E3,2.59E2,1.414E3,1.2E1,1.2E1,1.6E1,2.238E3,1.7E1,2.46E2,1.3E1,1.339E3,7.5E1,8E0,8E0,2.189E3,4.9E1,1E1,7E0,1.77E2,6.9E1,1.318E3,2.1E1,6.6E1,9E0,2.081E3,1.08E2,2.8E1,2.1E1,7.3E1,1.04E2,6.1E1,8E0],"tree_param":{"num_deleted":"0","num_feature":"169","num_nodes":"37","size_leaf_vector":"1"}},{"base_weights":[3.1659122E2,-5.2814445E4,2.5093795E5,-7.344289E4,6.932647E5,1.9837189E5,2.0126144E6,-7.965214E4,3.832525E5,4.1706866E5,1.0080945E6,1.0836206E5,1.0852508E6,3.448912E5,5.372557E5,-1.003773E5,4.0941734E5,6.8341525E5,-1.2722016E5,1.8226889E5,3.617615E5,3.1018272E5,-3.012247E5,8.4057094E5,4.302543E5,-2.4398986E4,2.0499331E5,8.049475E4,1.732046E5,4.8296574E4,2.6421788E5,5.7433652E4,3.7184662E5,-9.515602E4,3.2798203E5,7.199717E4,2.0890266E5],"categories":[],"categories_nodes":[],"categories_segments":[],"categories_sizes":[],"default_left":[0,0,0,0,0,0,0,0,0,0,0,0,0,0,0,0,0,0,0,0,0,0,0,0,0,0,0,0,0,0,0,0,0,0,0,0,0],"id":20,"left_children":[1,3,5,7,9,11,13,15,-1,17,19,21,23,-1,-1,25,27,29,-1,-1,-1,31,33,35,-1,-1,-1,-1,-1,-1,-1,-1,-1,-1,-1,-1,-1],"loss_changes":[5.283964E13,5.0394974E13,6.42368E13,3.5164275E13,7.618668E12,5.380017E13,3.2520284E12,3.2187057E13,0E0,1.2363926E13,4.750523E12,5.0607403E13,1.2405057E13,0E0,0E0,2.4850924E13,2.3760858E12,8.511866E12,0E0,0E0,0E0,3.0194941E13,4.3320147E13,2.1709424E12,0E0,0E0,0E0,0E0,0E0,0E0,0E0,0E0,0E0,0E0,0E0,0E0,0E0],"parents":[2147483647,0,0,1,1,2,2,3,3,4,4,5,5,6,6,7,7,9,9,10,10,11,11,12,12,15,15,16,16,17,17,21,21,22,22,23,23],"right_children":[2,4,6,8,10,12,14,16,-1,18,20,22,24,-1,-1,26,28,30,-1,-1,-1,32,34,36,-1,-1,-1,-1,-1,-1,-1,-1,-1,-1,-1,-1,-1],"split_conditions":[1E0,1E0,1E0,1E0,1E0,1E0,1E0,1E0,3.832525E5,1E0,1E0,1E0,1E0,3.448912E5,5.372557E5,1E0,1E0,1E0,-1.2722016E5,1.8226889E5,3.617615E5,1E0,1E0,1E0,4.302543E5,-2.4398986E4,2.0499331E5,8.049475E4,1.732046E5,4.8296574E4,2.6421788E5,5.7433652E4,3.7184662E5,-9.515602E4,3.2798203E5,7.199717E4,2.0890266E5],"split_indices":[20,130,110,25,1,43,1,67,0,105,18,1,131,0,0,152,22,18,0,0,0,51,34,5,0,0,0,0,0,0,0,0,0,0,0,0,0],"split_type":[0,0,0,0,0,0,0,0,0,0,0,0,0,0,0,0,0,0,0,0,0,0,0,0,0,0,0,0,0,0,0,0,0,0,0,0,0],"sum_hessian":[3.968E3,3.274E3,6.94E2,3.186E3,8.8E1,6.74E2,2E1,3.175E3,1.1E1,4.7E1,4.1E1,6.12E2,6.2E1,9E0,1.1E1,3.046E3,1.29E2,3.7E1,1E1,3.1E1,1E1,4.1E2,2.02E2,4.8E1,1.4E1,3.022E3,2.4E1,1.13E2,1.6E1,1.9E1,1.8E1,3.94E2,1.6E1,1.89E2,1.3E1,7E0,4.1E1],"tree_param":{"num_deleted":"0","num_feature":"169","num_nodes":"37","size_leaf_vector":"1"}},{"base_weights":[3.4117734E2,-4.8552242E4,3.704044E5,-5.3325977E4,4.5293938E5,4.159385E5,-1.6906E5,-6.2697547E4,6.641223E5,5.674613E5,4.05327E4,-8.159898E4,2.7287022E5,1.9778801E6,-2.157828E5,6.062739E5,-2.5553477E5,-1.228184E5,6.3587994E5,-1.32712E4,-8.649279E4,2.9053564E4,1.9860627E5,3.184124E5,6.366956E5,-1.26558336E5,1.3599119E5,1.2721992E5,4.3904688E5,2.1234959E4,-4.3068653E5],"categories":[],"categories_nodes":[],"categories_segments":[],"categories_sizes":[],"default_left":[0,0,0,0,0,0,0,0,0,0,0,0,0,0,0,0,0,0,0,0,0,0,0,0,0,0,0,0,0,0,0],"id":21,"left_children":[1,3,5,7,-1,9,-1,11,13,15,17,19,21,23,25,27,-1,29,-1,-1,-1,-1,-1,-1,-1,-1,-1,-1,-1,-1,-1],"loss_changes":[7.179924E13,3.450657E13,2.3686086E13,2.3517318E13,0E0,2.5316114E13,0E0,2.1897895E13,5.2177477E13,2.1030576E13,5.8324175E13,2.2378946E13,1.6126467E13,8.2760245E12,7.740102E12,1.6928983E13,0E0,4.713477E13,0E0,0E0,0E0,0E0,0E0,0E0,0E0,0E0,0E0,0E0,0E0,0E0,0E0],"parents":[2147483647,0,0,1,1,2,2,3,3,5,5,7,7,8,8,9,9,10,10,11,11,12,12,13,13,14,14,15,15,17,17],"right_children":[2,4,6,8,-1,10,-1,12,14,16,18,20,22,24,26,28,-1,30,-1,-1,-1,-1,-1,-1,-1,-1,-1,-1,-1,-1,-1],"split_conditions":[1E0,1E0,1E0,1E0,4.5293938E5,1E0,-1.6906E5,1E0,1E0,1E0,1E0,1E0,1E0,1E0,1E0,1E0,-2.5553477E5,1E0,6.3587994E5,-1.32712E4,-8.649279E4,2.9053564E4,1.9860627E5,3.184124E5,6.366956E5,-1.26558336E5,1.3599119E5,1.2721992E5,4.3904688E5,2.1234959E4,-4.3068653E5],"split_indices":[166,13,53,164,0,1,0,136,22,143,110,2,20,1,2,109,0,132,0,0,0,0,0,0,0,0,0,0,0,0,0],"split_type":[0,0,0,0,0,0,0,0,0,0,0,0,0,0,0,0,0,0,0,0,0,0,0,0,0,0,0,0,0,0,0],"sum_hessian":[3.968E3,3.505E3,4.63E2,3.497E3,8E0,4.45E2,1.8E1,3.452E3,4.5E1,3.17E2,1.28E2,3.268E3,1.84E2,1.8E1,2.7E1,3.1E2,7E0,1.21E2,7E0,3.041E3,2.27E2,1.49E2,3.5E1,1.1E1,7E0,1.9E1,8E0,3.01E2,9E0,1.08E2,1.3E1],"tree_param":{"num_deleted":"0","num_feature":"169","num_nodes":"31","size_leaf_vector":"1"}},{"base_weights":[3.1250586E2,5.7476646E3,-1.4225854E6,2.2545014E4,-4.319646E5,-3.8268712E5,-2.4415039E5,3.522538E4,-4.4708178E5,-5.411754E5,-3.0257906E5,6.007377E4,-2.3415003E5,-8.8693414E4,-8.6669356E5,-4.417337E5,-7.533538E5,-1.2764607E5,-2.1161583E5,3.5344914E4,1.0768313E3,-4.334812E4,-2.3663638E5,1.5770866E5,-7.097138E4,-3.5521997E5,-1.0018958E5,-7.961142E4,-1.4557812E5,-1.5429934E5,-1.945435E5,-5.9743723E4,-3.6230492E4],"categories":[],"categories_nodes":[],"categories_segments":[],"categories_sizes":[],"default_left":[0,0,0,0,0,0,0,0,0,0,0,0,0,0,0,0,0,0,0,0,0,0,0,0,0,0,0,0,0,0,0,0,0],"id":22,"left_children":[1,3,5,7,9,-1,-1,11,13,15,17,19,21,23,25,27,29,-1,31,-1,-1,-1,-1,-1,-1,-1,-1,-1,-1,-1,-1,-1,-1],"loss_changes":[3.0688814E13,2.9065765E13,1.2333372E12,2.2673007E13,2.048064E12,0E0,0E0,2.481505E13,1.5045751E13,1.6356821E12,1.6038505E12,1.8204984E13,1.0600797E13,9.707883E12,1.3762816E13,9.533496E11,1.2946873E11,0E0,1.3237066E11,0E0,0E0,0E0,0E0,0E0,0E0,0E0,0E0,0E0,0E0,0E0,0E0,0E0,0E0],"parents":[2147483647,0,0,1,1,2,2,3,3,4,4,7,7,8,8,9,9,10,10,11,11,12,12,13,13,14,14,15,15,16,16,18,18],"right_children":[2,4,6,8,10,-1,-1,12,14,16,18,20,22,24,26,28,30,-1,32,-1,-1,-1,-1,-1,-1,-1,-1,-1,-1,-1,-1,-1,-1],"split_conditions":[1E0,1E0,1E0,1E0,1E0,-3.8268712E5,-2.4415039E5,1E0,1E0,1E0,1E0,1E0,1E0,1E0,1E0,1E0,1E0,-1.2764607E5,1E0,3.5344914E4,1.0768313E3,-4.334812E4,-2.3663638E5,1.5770866E5,-7.097138E4,-3.5521997E5,-1.0018958E5,-7.961142E4,-1.4557812E5,-1.5429934E5,-1.945435E5,-5.9743723E4,-3.6230492E4],"split_indices":[42,95,12,111,9,0,0,137,102,167,167,167,2,167,167,12,12,0,12,0,0,0,0,0,0,0,0,0,0,0,0,0,0],"split_type":[0,0,0,0,0,0,0,0,0,0,0,0,0,0,0,0,0,0,0,0,0,0,0,0,0,0,0,0,0,0,0,0,0],"sum_hessian":[3.968E3,3.953E3,1.5E1,3.807E3,1.46E2,8E0,7E0,3.707E3,1E2,7.9E1,6.7E1,3.394E3,3.13E2,5.4E1,4.6E1,5.4E1,2.5E1,1.7E1,5E1,1.232E3,2.162E3,2.98E2,1.5E1,1.2E1,4.2E1,1.7E1,2.9E1,3.8E1,1.6E1,1.6E1,9E0,2.4E1,2.6E1],"tree_param":{"num_deleted":"0","num_feature":"169","num_nodes":"33","size_leaf_vector":"1"}},{"base_weights":[1.9074684E2,8.981496E3,-1.1126735E6,-2.8210805E4,2.9284297E5,-1.5167638E6,1.2030487E4,-3.936747E4,1.03657156E6,3.4730147E5,-6.847835E5,-4.5206288E5,-2.174251E5,-4.373544E4,4.6717462E5,5.8333925E5,4.944448E5,3.844202E5,-2.7166625E5,-2.1064392E5,-1.566581E4,-1.1107806E4,3.215886E5,8.709187E4,2.2830825E5,9.6995445E4,-1.3557686E5],"categories":[],"categories_nodes":[],"categories_segments":[],"categories_sizes":[],"default_left":[0,0,0,0,0,0,0,0,0,0,0,0,0,0,0,0,0,0,0,0,0,0,0,0,0,0,0],"id":23,"left_children":[1,3,5,7,9,11,-1,13,15,17,19,-1,-1,21,-1,23,-1,25,-1,-1,-1,-1,-1,-1,-1,-1,-1],"loss_changes":[3.8820565E13,4.1566605E13,1.4663266E13,4.1357528E13,2.430657E13,6.0667336E12,0E0,3.1846344E13,1.8867082E13,2.4982357E13,3.7207367E12,0E0,0E0,2.8532621E13,0E0,2.1703845E12,0E0,1.9469263E13,0E0,0E0,0E0,0E0,0E0,0E0,0E0,0E0,0E0],"parents":[2147483647,0,0,1,1,2,2,3,3,4,4,5,5,7,7,8,8,9,9,10,10,13,13,15,15,17,17],"right_children":[2,4,6,8,10,12,-1,14,16,18,20,-1,-1,22,-1,24,-1,26,-1,-1,-1,-1,-1,-1,-1,-1,-1],"split_conditions":[1E0,1E0,1E0,1E0,1E0,1E0,1.2030487E4,1E0,1E0,1E0,1E0,-4.5206288E5,-2.174251E5,1E0,4.6717462E5,1E0,4.944448E5,1E0,-2.7166625E5,-2.1064392E5,-1.566581E4,-1.1107806E4,3.215886E5,8.709187E4,2.2830825E5,9.6995445E4,-1.3557686E5],"split_indices":[159,166,9,77,163,0,0,13,0,147,0,0,0,7,0,168,0,95,0,0,0,0,0,0,0,0,0],"split_type":[0,0,0,0,0,0,0,0,0,0,0,0,0,0,0,0,0,0,0,0,0,0,0,0,0,0,0],"sum_hessian":[3.968E3,3.937E3,3.1E1,3.481E3,4.56E2,2.3E1,8E0,3.445E3,3.6E1,4.32E2,2.4E1,1.2E1,1.1E1,3.438E3,7E0,2.6E1,1E1,4.22E2,1E1,1.7E1,7E0,3.425E3,1.3E1,1.8E1,8E0,4.03E2,1.9E1],"tree_param":{"num_deleted":"0","num_feature":"169","num_nodes":"27","size_leaf_vector":"1"}},{"base_weights":[1.5793102E2,-9.107077E3,6.70475E5,-1.9771871E4,5.360876E5,9.050365E5,4.476231E4,-3.323911E4,4.121131E5,6.4005575E5,-7.465437E4,1.2672786E6,5.835713E4,-3.89684E4,2.0843973E5,2.2713484E5,3.5091797E5,1.7376461E5,7.339747E3,3.495027E5,1.3516714E5,-5.9018994E3,-8.002297E4,7.427851E4,-2.1301312E5],"categories":[],"categories_nodes":[],"categories_segments":[],"categories_sizes":[],"default_left":[0,0,0,0,0,0,0,0,0,0,0,0,0,0,0,0,0,0,0,0,0,0,0,0,0],"id":24,"left_children":[1,3,5,7,9,11,-1,13,15,17,-1,19,-1,21,-1,23,-1,-1,-1,-1,-1,-1,-1,-1,-1],"loss_changes":[2.464447E13,2.2759164E13,5.9656236E12,2.2330714E13,6.7976854E12,8.410536E12,0E0,2.0473377E13,2.4608737E13,5.3870865E12,0E0,4.3112496E12,0E0,1.4928946E13,0E0,1.2133146E13,0E0,0E0,0E0,0E0,0E0,0E0,0E0,0E0,0E0],"parents":[2147483647,0,0,1,1,2,2,3,3,4,4,5,5,7,7,8,8,9,9,11,11,13,13,15,15],"right_children":[2,4,6,8,10,12,-1,14,16,18,-1,20,-1,22,-1,24,-1,-1,-1,-1,-1,-1,-1,-1,-1],"split_conditions":[1E0,1E0,1E0,1E0,1E0,1E0,4.476231E4,1E0,1E0,1E0,-7.465437E4,1E0,5.835713E4,1E0,2.0843973E5,1E0,3.5091797E5,1.7376461E5,7.339747E3,3.495027E5,1.3516714E5,-5.9018994E3,-8.002297E4,7.427851E4,-2.1301312E5],"split_indices":[68,21,120,131,9,12,0,13,41,27,0,9,0,95,0,105,0,0,0,0,0,0,0,0,0],"split_type":[0,0,0,0,0,0,0,0,0,0,0,0,0,0,0,0,0,0,0,0,0,0,0,0,0],"sum_hessian":[3.968E3,3.914E3,5.4E1,3.839E3,7.5E1,3.6E1,1.8E1,3.723E3,1.16E2,6.7E1,8E0,2.3E1,1.3E1,3.701E3,2.2E1,1E2,1.6E1,5.5E1,1.2E1,1.6E1,7E0,3.558E3,1.43E2,9.2E1,8E0],"tree_param":{"num_deleted":"0","num_feature":"169","num_nodes":"25","size_leaf_vector":"1"}},{"base_weights":[1.4841135E2,-2.1421191E4,3.489487E5,-3.6910887E4,5.1919122E5,2.3137592E5,4.314561E5,-4.333047E4,1.1172326E6,2.8912244E5,1.0838484E6,7.231529E4,1.2478036E6,-7.681375E4,1.0957683E5,-3.434283E4,4.4056706E5,6.1617625E5,-1.8104855E5,5.368505E5,6.408566E5,1.463416E5,-1.0747853E5,9.068024E5,5.156224E5,-1.8893209E4,2.0738336E5,1.654808E4,3.8962662E5,7.536488E4,2.5474064E5,1.8690283E5,5.9145375E4,6.278084E4,-8.541605E4,3.6172072E5,1.2853359E5],"categories":[],"categories_nodes":[],"categories_segments":[],"categories_sizes":[],"default_left":[0,0,0,0,0,0,0,0,0,0,0,0,0,0,0,0,0,0,0,0,0,0,0,0,0,0,0,0,0,0,0,0,0,0,0,0,0],"id":25,"left_children":[1,3,5,7,9,11,-1,13,15,17,19,21,23,25,27,-1,-1,29,-1,31,-1,33,-1,35,-1,-1,-1,-1,-1,-1,-1,-1,-1,-1,-1,-1,-1],"loss_changes":[2.9854678E13,3.12961E13,4.2577097E13,2.6922912E13,1.3492292E13,3.476697E13,0E0,1.8499328E13,2.149185E13,2.6557058E13,2.8897345E13,7.583921E12,1.0150476E13,2.118761E13,3.792316E13,0E0,0E0,8.247935E12,0E0,1.837803E12,0E0,1.146277E13,0E0,5.105263E12,0E0,0E0,0E0,0E0,0E0,0E0,0E0,0E0,0E0,0E0,0E0,0E0,0E0],"parents":[2147483647,0,0,1,1,2,2,3,3,4,4,5,5,7,7,8,8,9,9,10,10,11,11,12,12,13,13,14,14,17,17,19,19,21,21,23,23],"right_children":[2,4,6,8,10,12,-1,14,16,18,20,22,24,26,28,-1,-1,30,-1,32,-1,34,-1,36,-1,-1,-1,-1,-1,-1,-1,-1,-1,-1,-1,-1,-1],"split_conditions":[1E0,1E0,1E0,1E0,1E0,1E0,4.314561E5,1E0,1E0,1E0,1E0,1E0,1E0,1E0,1E0,-3.434283E4,4.4056706E5,1E0,-1.8104855E5,1E0,6.408566E5,1E0,-1.0747853E5,1E0,5.156224E5,-1.8893209E4,2.0738336E5,1.654808E4,3.8962662E5,7.536488E4,2.5474064E5,1.8690283E5,5.9145375E4,6.278084E4,-8.541605E4,3.6172072E5,1.2853359E5],"split_indices":[128,130,22,24,102,20,0,20,166,4,4,9,0,44,98,0,0,9,0,0,0,102,0,96,0,0,0,0,0,0,0,0,0,0,0,0,0],"split_type":[0,0,0,0,0,0,0,0,0,0,0,0,0,0,0,0,0,0,0,0,0,0,0,0,0,0,0,0,0,0,0,0,0,0,0,0,0],"sum_hessian":[3.968E3,3.737E3,2.31E2,3.633E3,1.04E2,2.15E2,1.6E1,3.613E3,2E1,7.4E1,3E1,1.86E2,2.9E1,2.964E3,6.49E2,8E0,1.2E1,5.7E1,1.7E1,2.3E1,7E0,1.64E2,2.2E1,2.2E1,7E0,2.943E3,2.1E1,6.35E2,1.4E1,3.7E1,2E1,1.1E1,1.2E1,1.31E2,3.3E1,7E0,1.5E1],"tree_param":{"num_deleted":"0","num_feature":"169","num_nodes":"37","size_leaf_vector":"1"}},{"base_weights":[1.9916719E2,6.9775063E3,-8.579043E5,2.5699094E2,7.9963206E5,-1.1735808E6,1.1913633E4,1.13545625E4,-4.695241E5,9.829766E4,3.6481028E5,-3.496107E5,-1.6841408E5,-1.789484E4,2.333142E5,-3.1994562E5,-4.9806247E5,-5.7891167E3,1.6347917E5,8.009323E4,-3.2735116E5,-1.1430344E5,-1.0847049E4],"categories":[],"categories_nodes":[],"categories_segments":[],"categories_sizes":[],"default_left":[0,0,0,0,0,0,0,0,0,0,0,0,0,0,0,0,0,0,0,0,0,0,0],"id":26,"left_children":[1,3,5,7,9,11,-1,13,15,-1,-1,-1,-1,17,19,21,-1,-1,-1,-1,-1,-1,-1],"loss_changes":[2.3081116E13,2.09731E13,8.948556E12,2.0354282E13,9.795998E12,3.6173943E12,0E0,2.4762267E13,2.3434266E13,0E0,0E0,0E0,0E0,1.9658296E13,9.201087E13,4.2444092E12,0E0,0E0,0E0,0E0,0E0,0E0,0E0],"parents":[2147483647,0,0,1,1,2,2,3,3,4,4,5,5,7,7,8,8,13,13,14,14,15,15],"right_children":[2,4,6,8,10,12,-1,14,16,-1,-1,-1,-1,18,20,22,-1,-1,-1,-1,-1,-1,-1],"split_conditions":[1E0,1E0,1E0,1E0,1E0,1E0,1.1913633E4,1E0,1E0,9.829766E4,3.6481028E5,-3.496107E5,-1.6841408E5,1E0,1E0,1E0,-4.9806247E5,-5.7891167E3,1.6347917E5,8.009323E4,-3.2735116E5,-1.1430344E5,-1.0847049E4],"split_indices":[159,152,8,91,0,0,0,166,166,0,0,0,0,77,12,8,0,0,0,0,0,0,0],"split_type":[0,0,0,0,0,0,0,0,0,0,0,0,0,0,0,0,0,0,0,0,0,0,0],"sum_hessian":[3.968E3,3.937E3,3.1E1,3.904E3,3.3E1,2.3E1,8E0,3.814E3,9E1,2.3E1,1E1,1.2E1,1.1E1,3.37E3,4.44E2,8.3E1,7E0,3.335E3,3.5E1,4.14E2,3E1,4.9E1,3.4E1],"tree_param":{"num_deleted":"0","num_feature":"169","num_nodes":"23","size_leaf_vector":"1"}},{"base_weights":[1.3523378E2,-4.500168E3,8.6726225E5,-8.74376E2,-2.4600108E5,2.112616E4,3.2438675E5,-4.210994E3,2.6514056E5,-3.2479275E4,1.2845896E5,-5.6933184E3,-1.9834805E5,3.494423E4,-2.0870055E5],"categories":[],"categories_nodes":[],"categories_segments":[],"categories_sizes":[],"default_left":[0,0,0,0,0,0,0,0,0,0,0,0,0,0,0],"id":27,"left_children":[1,3,5,7,-1,-1,-1,9,-1,11,13,-1,-1,-1,-1],"loss_changes":[1.5950097E13,1.5582659E13,9.360486E12,1.548038E13,0E0,0E0,0E0,1.4713421E13,0E0,1.9701841E13,1.9552272E13,0E0,0E0,0E0,0E0],"parents":[2147483647,0,0,1,1,2,2,3,3,7,7,9,9,10,10],"right_children":[2,4,6,8,-1,-1,-1,10,-1,12,14,-1,-1,-1,-1],"split_conditions":[1E0,1E0,1E0,1E0,-2.4600108E5,2.112616E4,3.2438675E5,1E0,2.6514056E5,1E0,1E0,-5.6933184E3,-1.9834805E5,3.494423E4,-2.0870055E5],"split_indices":[24,144,166,25,0,0,0,20,0,36,30,0,0,0,0],"split_type":[0,0,0,0,0,0,0,0,0,0,0,0,0,0,0],"sum_hessian":[3.968E3,3.947E3,2.1E1,3.934E3,1.3E1,9E0,1.2E1,3.923E3,1.1E1,3.234E3,6.89E2,3.207E3,2.7E1,6.72E2,1.7E1],"tree_param":{"num_deleted":"0","num_feature":"169","num_nodes":"15","size_leaf_vector":"1"}},{"base_weights":[1.0457292E2,-1.7049158E4,2.7749616E5,-2.666232E4,5.427199E5,4.0187116E5,-3.5359475E5,-3.9419836E4,4.152488E5,6.6576156E5,-4.3815086E4,6.273188E5,4.6803875E4,3.7495512E5,-7.7837456E5,-4.818699E4,6.4611875E5,6.671211E5,2.2660084E5,5.344395E5,2.51364E5,5.434152E5,3.9600944E5,-9.442651E4,2.736386E5,-2.126326E5,3.8017416E5,-2.0860188E5,-1.0645009E5,-1.1860322E4,2.2599638E5,8.2532305E4,4.3142488E5,9.770341E4,2.1218192E5,7.035811E3,2.6413528E5,1.8123706E5,-1.379884E5,1.3592136E5,-7.770976E4,-3.871059E4,1.4490657E4],"categories":[],"categories_nodes":[],"categories_segments":[],"categories_sizes":[],"default_left":[0,0,0,0,0,0,0,0,0,0,0,0,0,0,0,0,0,0,0,0,0,0,0,0,0,0,0,0,0,0,0,0,0,0,0,0,0,0,0,0,0,0,0],"id":28,"left_children":[1,3,5,7,9,11,13,15,17,19,-1,21,23,25,27,29,31,33,35,37,-1,39,-1,41,-1,-1,-1,-1,-1,-1,-1,-1,-1,-1,-1,-1,-1,-1,-1,-1,-1,-1,-1],"loss_changes":[1.8881884E13,2.0111346E13,1.8153698E13,2.071507E13,5.738502E12,1.545454E13,1.1820118E13,2.1466209E13,4.8836987E12,3.1473596E12,0E0,1.1128533E13,1.2414267E13,2.4628817E13,1.0504278E12,1.6802464E13,1.5944311E13,2.7926892E12,1.0932384E13,1.3146701E13,0E0,5.9587386E12,0E0,8.283458E11,0E0,0E0,0E0,0E0,0E0,0E0,0E0,0E0,0E0,0E0,0E0,0E0,0E0,0E0,0E0,0E0,0E0,0E0,0E0],"parents":[2147483647,0,0,1,1,2,2,3,3,4,4,5,5,6,6,7,7,8,8,9,9,11,11,12,12,13,13,14,14,15,15,16,16,17,17,18,18,19,19,21,21,23,23],"right_children":[2,4,6,8,10,12,14,16,18,20,-1,22,24,26,28,30,32,34,36,38,-1,40,-1,42,-1,-1,-1,-1,-1,-1,-1,-1,-1,-1,-1,-1,-1,-1,-1,-1,-1,-1,-1],"split_conditions":[1E0,1E0,1E0,1E0,1E0,1E0,1E0,1E0,1E0,1E0,-4.3815086E4,1E0,1E0,1E0,1E0,1E0,1E0,1E0,1E0,1E0,2.51364E5,1E0,3.9600944E5,1E0,2.736386E5,-2.126326E5,3.8017416E5,-2.0860188E5,-1.0645009E5,-1.1860322E4,2.2599638E5,8.2532305E4,4.3142488E5,9.770341E4,2.1218192E5,7.035811E3,2.6413528E5,1.8123706E5,-1.379884E5,1.3592136E5,-7.770976E4,-3.871059E4,1.4490657E4],"split_indices":[128,21,2,130,8,0,96,164,167,2,0,41,21,167,0,45,95,8,96,93,0,105,0,8,0,0,0,0,0,0,0,0,0,0,0,0,0,0,0,0,0,0,0],"split_type":[0,0,0,0,0,0,0,0,0,0,0,0,0,0,0,0,0,0,0,0,0,0,0,0,0,0,0,0,0,0,0,0,0,0,0,0,0,0,0,0,0,0,0],"sum_hessian":[3.968E3,3.737E3,2.31E2,3.674E3,6.3E1,1.93E2,3.8E1,3.571E3,1.03E2,5.4E1,9E0,1.18E2,7.5E1,1.4E1,2.4E1,3.526E3,4.5E1,4.4E1,5.9E1,4.2E1,1.2E1,1.1E2,8E0,6.7E1,8E0,7E0,7E0,1.6E1,8E0,3.511E3,1.5E1,3.7E1,8E0,2.4E1,2E1,4.9E1,1E1,3.4E1,8E0,1.03E2,7E0,4.5E1,2.2E1],"tree_param":{"num_deleted":"0","num_feature":"169","num_nodes":"43","size_leaf_vector":"1"}},{"base_weights":[1.3442729E2,8.538796E3,-6.3158075E5,2.4759043E3,5.664341E5,-2.1240936E5,-2.917063E5,2.5490963E4,-2.5748328E5,3.1345344E3,7.866548E5,6.5602456E3,-1.2200214E5,7.310406E4,-9.7884836E4,-3.7087016E5,2.0506038E5,5.911804E5,2.770319E5,1.4533995E4,2.5905966E5,-3.2586383E4,1.189556E5,-1.0204121E5,3.6278652E4,-7.609729E4,3.4370697E5,2.1557112E5,2.1782207E4],"categories":[],"categories_nodes":[],"categories_segments":[],"categories_sizes":[],"default_left":[0,0,0,0,0,0,0,0,0,0,0,0,0,0,0,0,0,0,0,0,0,0,0,0,0,0,0,0,0],"id":29,"left_children":[1,3,5,7,9,-1,11,13,15,-1,17,-1,-1,19,21,23,25,27,-1,-1,-1,-1,-1,-1,-1,-1,-1,-1,-1],"loss_changes":[2.1067848E13,1.3245908E13,5.505349E12,2.3179303E13,5.1213186E12,0E0,2.0192279E12,2.0907955E13,1.6533458E13,0E0,2.543126E12,0E0,0E0,2.3553622E13,2.9159586E13,1.1137844E13,4.4669866E13,3.8180812E12,0E0,0E0,0E0,0E0,0E0,0E0,0E0,0E0,0E0,0E0,0E0],"parents":[2147483647,0,0,1,1,2,2,3,3,4,4,6,6,7,7,8,8,10,10,13,13,14,14,15,15,16,16,17,17],"right_children":[2,4,6,8,10,-1,12,14,16,-1,18,-1,-1,20,22,24,26,28,-1,-1,-1,-1,-1,-1,-1,-1,-1,-1,-1],"split_conditions":[1E0,1E0,1E0,1E0,1E0,-2.1240936E5,1E0,1E0,1E0,3.1345344E3,1E0,6.5602456E3,-1.2200214E5,1E0,1E0,1E0,1E0,1E0,2.770319E5,1.4533995E4,2.5905966E5,-3.2586383E4,1.189556E5,-1.0204121E5,3.6278652E4,-7.609729E4,3.4370697E5,2.1557112E5,2.1782207E4],"split_indices":[143,77,10,105,5,0,94,18,9,0,18,0,0,152,59,137,18,10,0,0,0,0,0,0,0,0,0,0,0],"split_type":[0,0,0,0,0,0,0,0,0,0,0,0,0,0,0,0,0,0,0,0,0,0,0,0,0,0,0,0,0],"sum_hessian":[3.968E3,3.916E3,5.2E1,3.874E3,4.2E1,2.7E1,2.5E1,3.559E3,3.15E2,1.2E1,3E1,1.1E1,1.4E1,2.568E3,9.91E2,2.53E2,6.2E1,2.1E1,9E0,2.548E3,2E1,9.22E2,6.9E1,2.19E2,3.4E1,4.4E1,1.8E1,1.2E1,9E0],"tree_param":{"num_deleted":"0","num_feature":"169","num_nodes":"29","size_leaf_vector":"1"}},{"base_weights":[1.2312232E2,4.355338E3,-1.1078492E6,7.963854E3,-2.2585102E5,-2.993403E5,-1.8862836E5,3.3859792E3,9.005187E5,-3.833256E3,5.392241E5,1.3121055E4,3.561436E5,3.469142E2,-1.5003552E5,6.734969E4,1.5755548E5],"categories":[],"categories_nodes":[],"categories_segments":[],"categories_sizes":[],"default_left":[0,0,0,0,0,0,0,0,0,0,0,0,0,0,0,0,0],"id":30,"left_children":[1,3,5,7,-1,-1,-1,9,11,13,15,-1,-1,-1,-1,-1,-1],"loss_changes":[1.8607608E13,1.4381706E13,7.9413274E11,1.6094873E13,0E0,0E0,0E0,1.5160625E13,1.1541641E13,1.3781063E13,1.9915583E12,0E0,0E0,0E0,0E0,0E0,0E0],"parents":[2147483647,0,0,1,1,2,2,3,3,7,7,8,8,9,9,10,10],"right_children":[2,4,6,8,-1,-1,-1,10,12,14,16,-1,-1,-1,-1,-1,-1],"split_conditions":[1E0,1E0,1E0,1E0,-2.2585102E5,-2.993403E5,-1.8862836E5,1E0,1E0,1E0,1E0,1.3121055E4,3.561436E5,3.469142E2,-1.5003552E5,6.734969E4,1.5755548E5],"split_indices":[42,153,12,24,0,0,0,68,166,159,1,0,0,0,0,0,0],"split_type":[0,0,0,0,0,0,0,0,0,0,0,0,0,0,0,0,0],"sum_hessian":[3.968E3,3.953E3,1.5E1,3.939E3,1.4E1,8E0,7E0,3.919E3,2E1,3.867E3,5.2E1,9E0,1.1E1,3.836E3,3.1E1,2.1E1,3.1E1],"tree_param":{"num_deleted":"0","num_feature":"169","num_nodes":"17","size_leaf_vector":"1"}},{"base_weights":[8.8550644E1,-1.325889E4,3.2604478E5,-1.8058504E4,8.491651E5,3.8016812E5,-1.5020306E5,-3.421558E4,2.4283783E5,3.4310116E5,-5.718685E4,3.173659E5,2.5929802E5,-4.5759598E4,3.619345E5,3.242259E5,-1.8937317E5,3.767693E5,-1.1752628E5,-1.1260724E4,1.966999E5,4.8141797E4,1.7216966E5,1.1712389E5,4.506674E3,1.6114662E5,-1.362781E5,7.2105086E4,2.3206162E5],"categories":[],"categories_nodes":[],"categories_segments":[],"categories_sizes":[],"default_left":[0,0,0,0,0,0,0,0,0,0,0,0,0,0,0,0,0,0,0,0,0,0,0,0,0,0,0,0,0],"id":31,"left_children":[1,3,5,7,9,11,-1,13,15,-1,-1,17,-1,19,21,23,25,27,-1,-1,-1,-1,-1,-1,-1,-1,-1,-1,-1],"loss_changes":[1.726437E13,1.5780972E13,8.420081E12,1.5981537E13,1.5769886E13,7.146295E12,0E0,1.6328307E13,7.783736E12,0E0,0E0,6.8584116E12,0E0,1.3689772E13,6.016403E12,1.1113079E13,1.3276069E13,4.688246E12,0E0,0E0,0E0,0E0,0E0,0E0,0E0,0E0,0E0,0E0,0E0],"parents":[2147483647,0,0,1,1,2,2,3,3,4,4,5,5,7,7,8,8,11,11,13,13,14,14,15,15,16,16,17,17],"right_children":[2,4,6,8,10,12,-1,14,16,-1,-1,18,-1,20,22,24,26,28,-1,-1,-1,-1,-1,-1,-1,-1,-1,-1,-1],"split_conditions":[1E0,1E0,1E0,1E0,1E0,1E0,-1.5020306E5,1E0,1E0,3.4310116E5,-5.718685E4,1E0,2.5929802E5,1E0,1E0,1E0,1E0,1E0,-1.1752628E5,-1.1260724E4,1.966999E5,4.8141797E4,1.7216966E5,1.1712389E5,4.506674E3,1.6114662E5,-1.362781E5,7.2105086E4,2.3206162E5],"split_indices":[67,13,115,128,3,4,0,130,3,0,0,128,0,86,8,1,96,161,0,0,0,0,0,0,0,0,0,0,0],"split_type":[0,0,0,0,0,0,0,0,0,0,0,0,0,0,0,0,0,0,0,0,0,0,0,0,0,0,0,0,0],"sum_hessian":[3.968E3,3.812E3,1.56E2,3.791E3,2.1E1,1.48E2,8E0,3.57E3,2.21E2,1.3E1,8E0,1.37E2,1.1E1,3.469E3,1.01E2,1.86E2,3.5E1,1.28E2,9E0,3.453E3,1.6E1,7.4E1,2.7E1,1.13E2,7.3E1,1.1E1,2.4E1,1.18E2,1E1],"tree_param":{"num_deleted":"0","num_feature":"169","num_nodes":"29","size_leaf_vector":"1"}},{"base_weights":[9.711066E1,-2.4496177E3,2.8016878E5,3.946523E3,-4.8222912E5,1.0400541E4,-4.5584694E5,-3.5547272E5,-2.6243862E5,1.3799203E4,-1.9209627E5,-2.9659678E5,-1.9466797E5,-2.0959473E5,-2.0570369E5,4.094542E3,-1.4730184E5,-8.336327E4,9.387422E3,1.1486362E5,-1.1216721E5],"categories":[],"categories_nodes":[],"categories_segments":[],"categories_sizes":[],"default_left":[0,0,0,0,0,0,0,0,0,0,0,0,0,0,0,0,0,0,0,0,0],"id":32,"left_children":[1,3,-1,5,7,9,11,13,-1,15,-1,17,-1,19,-1,-1,-1,-1,-1,-1,-1],"loss_changes":[1.2582852E13,1.2152697E13,0E0,1.1597821E13,4.4767684E12,1.1320644E13,3.501015E12,3.5755005E12,0E0,1.1289906E13,0E0,9.7920195E11,0E0,7.328204E12,0E0,0E0,0E0,0E0,0E0,0E0,0E0],"parents":[2147483647,0,0,1,1,3,3,4,4,5,5,6,6,7,7,9,9,11,11,13,13],"right_children":[2,4,-1,6,8,10,12,14,-1,16,-1,18,-1,20,-1,-1,-1,-1,-1,-1,-1],"split_conditions":[1E0,1E0,2.8016878E5,1E0,1E0,1E0,1E0,1E0,-2.6243862E5,1E0,-1.9209627E5,1E0,-1.9466797E5,1E0,-2.0570369E5,4.094542E3,-1.4730184E5,-8.336327E4,9.387422E3,1.1486362E5,-1.1216721E5],"split_indices":[23,143,0,49,22,42,18,8,0,158,0,136,0,167,0,0,0,0,0,0,0],"split_type":[0,0,0,0,0,0,0,0,0,0,0,0,0,0,0,0,0,0,0,0,0],"sum_hessian":[3.968E3,3.96E3,8E0,3.908E3,5.2E1,3.854E3,5.4E1,4.4E1,8E0,3.839E3,1.5E1,3.9E1,1.5E1,3.5E1,9E0,3.814E3,2.5E1,3.2E1,7E0,1E1,2.5E1],"tree_param":{"num_deleted":"0","num_feature":"169","num_nodes":"21","size_leaf_vector":"1"}},{"base_weights":[5.5318428E1,-1.053609E4,3.3088406E5,6.036484E3,-2.2560222E5,1.9010448E5,1.2653192E6,-4.916802E3,5.6930956E5,-2.738394E5,4.6082553E5,6.888256E4,3.045674E5,5.834313E5,4.848972E4,2.4286797E4,-2.6454788E5,1.6934848E5,5.056296E5,-3.4450144E5,2.620436E4,-1.6469595E5,2.7441922E5,1.4040108E5,-1.6170106E5,1.3447655E4,-2.7346088E4,-8.742627E4,8.576455E4,1.6265031E5,-7.3734555E4,-6.9315586E4,-1.8182633E5,8.192875E4,-6.7131086E4,5.2220086E4,-6.2273156E4],"categories":[],"categories_nodes":[],"categories_segments":[],"categories_sizes":[],"default_left":[0,0,0,0,0,0,0,0,0,0,0,0,0,0,0,0,0,0,0,0,0,0,0,0,0,0,0,0,0,0,0,0,0,0,0,0,0],"id":33,"left_children":[1,3,5,7,9,11,13,15,17,19,21,23,-1,-1,-1,25,27,29,-1,31,33,-1,-1,35,-1,-1,-1,-1,-1,-1,-1,-1,-1,-1,-1,-1,-1],"loss_changes":[1.3904343E13,1.3704839E13,1.6169674E13,2.2026696E13,9.12155E12,1.509661E13,2.238496E13,2.6554132E13,4.5664403E13,5.451861E12,1.6471963E13,5.479218E12,0E0,0E0,0E0,1.6288844E13,2.837056E13,1.5184024E13,0E0,3.4900195E12,5.396055E12,0E0,0E0,3.4144652E12,0E0,0E0,0E0,0E0,0E0,0E0,0E0,0E0,0E0,0E0,0E0,0E0,0E0],"parents":[2147483647,0,0,1,1,2,2,3,3,4,4,5,5,6,6,7,7,8,8,9,9,10,10,11,11,15,15,16,16,17,17,19,19,20,20,23,23],"right_children":[2,4,6,8,10,12,14,16,18,20,22,24,-1,-1,-1,26,28,30,-1,32,34,-1,-1,36,-1,-1,-1,-1,-1,-1,-1,-1,-1,-1,-1,-1,-1],"split_conditions":[1E0,1E0,1E0,1E0,1E0,1E0,1E0,1E0,1E0,1E0,1E0,1E0,3.045674E5,5.834313E5,4.848972E4,1E0,1E0,1E0,5.056296E5,1E0,1E0,-1.6469595E5,2.7441922E5,1E0,-1.6170106E5,1.3447655E4,-2.7346088E4,-8.742627E4,8.576455E4,1.6265031E5,-7.3734555E4,-6.9315586E4,-1.8182633E5,8.192875E4,-6.7131086E4,5.2220086E4,-6.2273156E4],"split_indices":[131,165,41,110,163,59,18,2,2,93,11,105,0,0,0,4,96,1,0,96,71,0,0,2,0,0,0,0,0,0,0,0,0,0,0,0,0],"split_type":[0,0,0,0,0,0,0,0,0,0,0,0,0,0,0,0,0,0,0,0,0,0,0,0,0,0,0,0,0,0,0,0,0,0,0,0,0],"sum_hessian":[3.968E3,3.845E3,1.23E2,3.57E3,2.75E2,1.07E2,1.6E1,3.502E3,6.8E1,2.57E2,1.8E1,9.7E1,1E1,7E0,9E0,3.148E3,3.54E2,5.5E1,1.3E1,2.08E2,4.9E1,7E0,1.1E1,8.9E1,8E0,2.532E3,6.16E2,2.97E2,5.7E1,2.6E1,2.9E1,1.93E2,1.5E1,2.4E1,2.5E1,7.3E1,1.6E1],"tree_param":{"num_deleted":"0","num_feature":"169","num_nodes":"37","size_leaf_vector":"1"}},{"base_weights":[7.355257E1,-4.1162295E3,6.582697E5,-8.483575E4,3.2828523E4,-4.9965275E5,5.3615325E5,-9.681546E4,3.904877E5,1.12320195E5,-4.1162176E4,-1.8858144E5,-2.3952178E4,-4.7648895E4,-4.702557E5,5.237468E4,3.96583E5,-1.9135965E4,-8.290838E5,-1.856159E4,1.23291305E5,-1.2104575E5,1.1990973E5,8.026773E3,3.7257022E5,1.0615978E5,-5.3802996E4,-2.3629438E3,-3.7529075E5,-2.1003616E5,-1.2750817E5],"categories":[],"categories_nodes":[],"categories_segments":[],"categories_sizes":[],"default_left":[0,0,0,0,0,0,0,0,0,0,0,0,0,0,0,0,0,0,0,0,0,0,0,0,0,0,0,0,0,0,0],"id":34,"left_children":[1,3,5,7,9,11,-1,13,-1,15,17,-1,-1,19,21,23,25,27,29,-1,-1,-1,-1,-1,-1,-1,-1,-1,-1,-1,-1],"loss_changes":[1.0943094E13,1.1759245E13,5.0243568E13,2.701618E13,1.5910899E13,2.0007758E12,0E0,2.2583345E13,0E0,2.2220152E13,2.4314405E13,0E0,0E0,2.256757E13,9.751082E12,2.8837262E13,1.0873368E13,1.9403236E13,9.908561E11,0E0,0E0,0E0,0E0,0E0,0E0,0E0,0E0,0E0,0E0,0E0,0E0],"parents":[2147483647,0,0,1,1,2,2,3,3,4,4,5,5,7,7,9,9,10,10,13,13,14,14,15,15,16,16,17,17,18,18],"right_children":[2,4,6,8,10,12,-1,14,-1,16,18,-1,-1,20,22,24,26,28,30,-1,-1,-1,-1,-1,-1,-1,-1,-1,-1,-1,-1],"split_conditions":[1E0,1E0,1E0,1E0,1E0,1E0,5.3615325E5,1E0,3.904877E5,1E0,1E0,-1.8858144E5,-2.3952178E4,1E0,1E0,1E0,1E0,1E0,1E0,-1.856159E4,1.23291305E5,-1.2104575E5,1.1990973E5,8.026773E3,3.7257022E5,1.0615978E5,-5.3802996E4,-2.3629438E3,-3.7529075E5,-2.1003616E5,-1.2750817E5],"split_indices":[33,5,135,13,0,126,0,168,0,166,126,0,0,59,96,113,59,141,8,0,0,0,0,0,0,0,0,0,0,0,0],"split_type":[0,0,0,0,0,0,0,0,0,0,0,0,0,0,0,0,0,0,0,0,0,0,0,0,0,0,0,0,0,0,0],"sum_hessian":[3.968E3,3.943E3,2.5E1,1.238E3,2.705E3,1.5E1,1E1,1.23E3,8E0,1.304E3,1.401E3,8E0,7E0,1.087E3,1.43E2,1.077E3,2.27E2,1.363E3,3.8E1,1.027E3,6E1,1.34E2,9E0,1.066E3,1.1E1,2.03E2,2.4E1,1.356E3,7E0,2.7E1,1.1E1],"tree_param":{"num_deleted":"0","num_feature":"169","num_nodes":"31","size_leaf_vector":"1"}},{"base_weights":[7.043618E1,1.7231963E4,-2.0597478E5,2.6865553E4,-3.6482684E5,-2.839066E5,5.9738175E5,4.4700746E4,-1.8364534E5,-3.92393E5,-1.8206508E4,-3.3878472E5,-5.2652168E4,4.1326664E4,3.6138962E5,-3.6037994E5,6.1162844E4,-3.7258753E5,-1.19225555E5,-3.7803838E5,9.2738E4,-1.1029046E5,7.5518575E5,7.4842075E3,1.2417713E5,-1.1407532E5,1.6315438E4,6.1271226E3,1.0430175E5,-6.56664E4,-1.8307064E5,-6.2377992E4,-1.5627197E5,-1.9523195E4,9.5093164E4,2.8060288E5,2.4731887E3],"categories":[],"categories_nodes":[],"categories_segments":[],"categories_sizes":[],"default_left":[0,0,0,0,0,0,0,0,0,0,0,0,0,0,0,0,0,0,0,0,0,0,0,0,0,0,0,0,0,0,0,0,0,0,0,0,0],"id":35,"left_children":[1,3,5,7,9,11,-1,13,15,17,-1,19,21,23,-1,25,27,29,-1,31,33,-1,35,-1,-1,-1,-1,-1,-1,-1,-1,-1,-1,-1,-1,-1,-1],"loss_changes":[1.4031758E13,1.3483377E13,6.8101475E13,1.3416034E13,7.019713E11,3.7686555E12,0E0,1.734848E13,1.2077765E13,2.0383374E11,0E0,4.0705217E12,2.0219095E13,1.3531167E13,0E0,1.0292396E13,1.5976124E12,2.5437185E12,0E0,7.002919E12,1.1939753E12,0E0,7.3571846E12,0E0,0E0,0E0,0E0,0E0,0E0,0E0,0E0,0E0,0E0,0E0,0E0,0E0,0E0],"parents":[2147483647,0,0,1,1,2,2,3,3,4,4,5,5,7,7,8,8,9,9,11,11,12,12,13,13,15,15,16,16,17,17,19,19,20,20,22,22],"right_children":[2,4,6,8,10,12,-1,14,16,18,-1,20,22,24,-1,26,28,30,-1,32,34,-1,36,-1,-1,-1,-1,-1,-1,-1,-1,-1,-1,-1,-1,-1,-1],"split_conditions":[1E0,1E0,1E0,1E0,1E0,1E0,5.9738175E5,1E0,1E0,1E0,-1.8206508E4,1E0,1E0,1E0,3.6138962E5,1E0,1E0,1E0,-1.19225555E5,1E0,1E0,-1.1029046E5,1E0,7.4842075E3,1.2417713E5,-1.1407532E5,1.6315438E4,6.1271226E3,1.0430175E5,-6.56664E4,-1.8307064E5,-6.2377992E4,-1.5627197E5,-1.9523195E4,9.5093164E4,2.8060288E5,2.4731887E3],"split_indices":[27,91,161,137,163,168,0,25,1,168,0,163,1,35,0,168,79,18,0,18,1,0,18,0,0,0,0,0,0,0,0,0,0,0,0,0,0],"split_type":[0,0,0,0,0,0,0,0,0,0,0,0,0,0,0,0,0,0,0,0,0,0,0,0,0,0,0,0,0,0,0,0,0,0,0,0,0],"sum_hessian":[3.968E3,3.663E3,3.05E2,3.573E3,9E1,2.97E2,8E0,3.294E3,2.79E2,8.2E1,8E0,2.4E2,5.7E1,3.287E3,7E0,1.62E2,1.17E2,7.2E1,1E1,2.2E2,2E1,3.7E1,2E1,3.236E3,5.1E1,1.21E2,4.1E1,1.08E2,9E0,6.1E1,1.1E1,1.67E2,5.3E1,1.3E1,7E0,1.2E1,8E0],"tree_param":{"num_deleted":"0","num_feature":"169","num_nodes":"37","size_leaf_vector":"1"}},{"base_weights":[7.355096E1,3.057163E3,-2.0266364E5,-5.296922E3,5.537855E5,1.4107209E4,-1.8479267E5,3.3029388E5,3.4138353E5,7.584346E3,1.208332E6,-2.533578E5,3.9105256E5,2.2207056E5,2.1422645E5,6.5022375E2,2.1665964E5,4.1504603E5,1.099826E5,-4.046876E4,-3.149751E5,2.2163232E4,1.4748986E5],"categories":[],"categories_nodes":[],"categories_segments":[],"categories_sizes":[],"default_left":[0,0,0,0,0,0,0,0,0,0,0,0,0,0,0,0,0,0,0,0,0,0,0],"id":36,"left_children":[1,3,-1,5,7,9,11,13,-1,15,17,19,-1,21,-1,-1,-1,-1,-1,-1,-1,-1,-1],"loss_changes":[1.0665102E13,1.8197042E13,0E0,1.3570218E13,1.2675801E13,2.7388675E13,5.0155387E13,3.2157855E12,0E0,1.5683663E13,8.6546317E12,3.0908942E13,0E0,2.1948174E12,0E0,0E0,0E0,0E0,0E0,0E0,0E0,0E0,0E0],"parents":[2147483647,0,0,1,1,3,3,4,4,5,5,6,6,7,7,9,9,10,10,11,11,13,13],"right_children":[2,4,-1,6,8,10,12,14,-1,16,18,20,-1,22,-1,-1,-1,-1,-1,-1,-1,-1,-1],"split_conditions":[1E0,1E0,-2.0266364E5,1E0,1E0,1E0,1E0,1E0,3.4138353E5,1E0,1E0,1E0,3.9105256E5,1E0,2.1422645E5,6.5022375E2,2.1665964E5,4.1504603E5,1.099826E5,-4.046876E4,-3.149751E5,2.2163232E4,1.4748986E5],"split_indices":[144,54,0,2,2,33,110,137,0,40,5,27,0,12,0,0,0,0,0,0,0,0,0],"split_type":[0,0,0,0,0,0,0,0,0,0,0,0,0,0,0,0,0,0,0,0,0,0,0],"sum_hessian":[3.968E3,3.955E3,1.3E1,3.896E3,5.9E1,3.516E3,3.8E2,4.8E1,1.1E1,3.497E3,1.9E1,3.67E2,1.3E1,4.1E1,7E0,3.48E3,1.7E1,1E1,9E0,3.45E2,2.2E1,3.2E1,9E0],"tree_param":{"num_deleted":"0","num_feature":"169","num_nodes":"23","size_leaf_vector":"1"}},{"base_weights":[8.9962776E1,2.525499E3,-2.3839422E5,-2.0077637E3,5.4022306E5,6.663756E2,-1.950795E5,1.092443E6,-2.6497044E5,1.4137016E4,-1.7478038E5,4.0243775E5,1.207456E5,5.0713926E3,-7.56912E4,-4.9170312E4,6.890395E3],"categories":[],"categories_nodes":[],"categories_segments":[],"categories_sizes":[],"default_left":[0,0,0,0,0,0,0,0,0,0,0,0,0,0,0,0,0],"id":37,"left_children":[1,3,-1,5,7,9,-1,11,-1,13,15,-1,-1,-1,-1,-1,-1],"loss_changes":[1.0240911E13,9.650512E12,0E0,9.081768E12,3.152869E13,9.250752E12,0E0,9.615907E12,0E0,1.070771E13,2.5090337E12,0E0,0E0,0E0,0E0,0E0,0E0],"parents":[2147483647,0,0,1,1,3,3,4,4,5,5,7,7,9,9,10,10],"right_children":[2,4,-1,6,8,10,-1,12,-1,14,16,-1,-1,-1,-1,-1,-1],"split_conditions":[1E0,1E0,-2.3839422E5,1E0,1E0,1E0,-1.950795E5,1E0,-2.6497044E5,1E0,1E0,4.0243775E5,1.207456E5,5.0713926E3,-7.56912E4,-4.9170312E4,6.890395E3],"split_indices":[123,152,0,70,18,165,0,167,0,91,93,0,0,0,0,0,0],"split_type":[0,0,0,0,0,0,0,0,0,0,0,0,0,0,0,0,0],"sum_hessian":[3.968E3,3.959E3,9E0,3.926E3,3.3E1,3.914E3,1.2E1,2.5E1,8E0,3.635E3,2.79E2,1.1E1,1.4E1,3.55E3,8.5E1,2.3E2,4.9E1],"tree_param":{"num_deleted":"0","num_feature":"169","num_nodes":"17","size_leaf_vector":"1"}},{"base_weights":[6.245317E1,-4.700244E3,7.19412E5,-1.3917625E4,2.886405E5,-7.202582E4,1.4788031E6,-1.812549E4,5.5428356E5,6.489739E3,4.473241E5,1.786581E5,5.0381734E5,-2.715682E4,2.5122242E5,2.654676E5,8.069011E4,-9.073082E4,2.975173E5,-7.7125464E3,7.996009E4,3.1482762E4,2.2275956E5,-1.2582489E4,5.7295863E4,-7.571961E4,1.1368961E5],"categories":[],"categories_nodes":[],"categories_segments":[],"categories_sizes":[],"default_left":[0,0,0,0,0,0,0,0,0,0,0,0,0,0,0,0,0,0,0,0,0,0,0,0,0,0,0],"id":38,"left_children":[1,3,5,7,9,-1,11,13,15,17,-1,-1,-1,19,21,-1,23,25,-1,-1,-1,-1,-1,-1,-1,-1,-1],"loss_changes":[1.3595225E13,1.0659183E13,2.0650872E13,9.139317E12,5.758735E13,0E0,7.684569E12,9.230097E12,8.315581E12,1.3200934E13,0E0,0E0,0E0,1.0001641E13,1.0108654E13,0E0,3.8403778E11,1.4095815E13,0E0,0E0,0E0,0E0,0E0,0E0,0E0,0E0,0E0],"parents":[2147483647,0,0,1,1,2,2,3,3,4,4,6,6,7,7,8,8,9,9,13,13,14,14,16,16,17,17],"right_children":[2,4,6,8,10,-1,12,14,16,18,-1,-1,-1,20,22,-1,24,26,-1,-1,-1,-1,-1,-1,-1,-1,-1],"split_conditions":[1E0,1E0,1E0,1E0,1E0,-7.202582E4,1E0,1E0,1E0,1E0,4.473241E5,1.786581E5,5.0381734E5,1E0,1E0,2.654676E5,1E0,1E0,2.975173E5,-7.7125464E3,7.996009E4,3.1482762E4,2.2275956E5,-1.2582489E4,5.7295863E4,-7.571961E4,1.1368961E5],"split_indices":[127,107,0,44,106,0,69,131,0,96,0,0,0,21,41,0,167,166,0,0,0,0,0,0,0,0,0],"split_type":[0,0,0,0,0,0,0,0,0,0,0,0,0,0,0,0,0,0,0,0,0,0,0,0,0,0,0],"sum_hessian":[3.968E3,3.942E3,2.6E1,3.822E3,1.2E2,1.1E1,1.5E1,3.794E3,2.8E1,1.03E2,1.7E1,8E0,7E0,3.671E3,1.23E2,1.2E1,1.6E1,9.6E1,7E0,3.604E3,6.7E1,1.07E2,1.6E1,9E0,7E0,6.8E1,2.8E1],"tree_param":{"num_deleted":"0","num_feature":"169","num_nodes":"27","size_leaf_vector":"1"}},{"base_weights":[9.958826E1,-1.0195782E4,2.5152158E5,-1.8549953E4,2.9647272E5,3.6035622E5,-1.2469002E5,-2.4236996E4,5.155996E5,2.8129168E4,6.770446E5,2.3012928E5,2.5898261E5,3.140674E5,-3.5799575E5,-2.0779545E4,-2.4072147E5,1.7775261E5,3.3387644E5,-2.1348303E5,6.084296E5,3.3217453E5,-1.9798114E5,1.3582536E5,-1.1479772E5,-1.2528739E3,-4.2581324E4,-3.9721156E4,1.9034747E5,-8.8879414E4,2.4049647E5,1.8025802E5,1.221312E4,5.9266855E4,1.7596084E5,-1.7275803E5,6.096652E4],"categories":[],"categories_nodes":[],"categories_segments":[],"categories_sizes":[],"default_left":[0,0,0,0,0,0,0,0,0,0,0,0,0,0,0,0,0,0,0,0,0,0,0,0,0,0,0,0,0,0,0,0,0,0,0,0,0],"id":39,"left_children":[1,3,5,7,9,11,13,15,17,19,-1,21,-1,23,-1,25,-1,27,-1,29,31,33,35,-1,-1,-1,-1,-1,-1,-1,-1,-1,-1,-1,-1,-1,-1],"loss_changes":[1.0271612E13,9.767002E12,6.3959854E12,1.1274576E13,7.358349E13,1.244288E13,2.2633131E13,1.3273292E13,1.2764631E13,1.2926115E13,0E0,4.5543567E12,0E0,6.499896E12,0E0,9.379433E12,0E0,6.9043634E12,0E0,1.519715E13,2.8897695E12,2.5811285E12,5.39191E12,0E0,0E0,0E0,0E0,0E0,0E0,0E0,0E0,0E0,0E0,0E0,0E0,0E0,0E0],"parents":[2147483647,0,0,1,1,2,2,3,3,4,4,5,5,6,6,7,7,8,8,9,9,11,11,13,13,15,15,17,17,19,19,20,20,21,21,22,22],"right_children":[2,4,6,8,10,12,14,16,18,20,-1,22,-1,24,-1,26,-1,28,-1,30,32,34,36,-1,-1,-1,-1,-1,-1,-1,-1,-1,-1,-1,-1,-1,-1],"split_conditions":[1E0,1E0,1E0,1E0,1E0,1E0,1E0,1E0,1E0,1E0,6.770446E5,1E0,2.5898261E5,1E0,-3.5799575E5,1E0,-2.4072147E5,1E0,3.3387644E5,1E0,1E0,1E0,1E0,1.3582536E5,-1.1479772E5,-1.2528739E3,-4.2581324E4,-3.9721156E4,1.9034747E5,-8.8879414E4,2.4049647E5,1.8025802E5,1.221312E4,5.9266855E4,1.7596084E5,-1.7275803E5,6.096652E4],"split_indices":[67,130,9,77,59,20,20,144,20,9,0,168,0,115,0,105,0,18,0,168,97,22,0,0,0,0,0,0,0,0,0,0,0,0,0,0,0],"split_type":[0,0,0,0,0,0,0,0,0,0,0,0,0,0,0,0,0,0,0,0,0,0,0,0,0,0,0,0,0,0,0,0,0,0,0,0,0],"sum_hessian":[3.968E3,3.812E3,1.56E2,3.711E3,1.01E2,1.21E2,3.5E1,3.672E3,3.9E1,9.2E1,9E0,1.04E2,1.7E1,2.7E1,8E0,3.66E3,1.2E1,2.9E1,1E1,6.5E1,2.7E1,8.4E1,2E1,2E1,7E0,3.357E3,3.03E2,1.9E1,1E1,5.7E1,8E0,2E1,7E0,7.3E1,1.1E1,9E0,1.1E1],"tree_param":{"num_deleted":"0","num_feature":"169","num_nodes":"37","size_leaf_vector":"1"}},{"base_weights":[1.0917506E2,-1.1641424E4,1.9458908E5,7.3990264E3,-2.1801069E5,-1.677454E5,2.5659744E5,3.0386284E3,3.0349834E5,-1.7084289E5,-5.1039003E5,6.3935773E4,-3.93961E5,1.8291264E5,1.6853797E5,-2.7505566E3,8.176196E5,-2.2522761E5,2.1793297E5,-1.3142358E5,-1.3073883E4,1.02836484E5,4.382609E5,-1.4798333E3,1.6926533E5,4.724504E4,2.9840628E5,-6.239195E4,1.4015505E5,4.0260098E4,-2.0120584E5,1.3619077E5,2.8342545E4],"categories":[],"categories_nodes":[],"categories_segments":[],"categories_sizes":[],"default_left":[0,0,0,0,0,0,0,0,0,0,0,0,0,0,0,0,0,0,0,0,0,0,0,0,0,0,0,0,0,0,0,0,0],"id":40,"left_children":[1,3,5,7,9,11,13,15,-1,17,-1,-1,19,21,-1,23,25,27,-1,-1,-1,29,31,-1,-1,-1,-1,-1,-1,-1,-1,-1,-1],"loss_changes":[9.068348E12,1.4704233E13,5.084266E12,2.0040213E13,3.0532025E13,3.3949352E12,6.9932826E12,1.6105016E13,0E0,1.9176064E13,0E0,0E0,1.407928E12,3.4326855E12,0E0,9.797888E12,7.4206224E12,1.3049644E13,0E0,0E0,0E0,9.735644E12,2.0841072E12,0E0,0E0,0E0,0E0,0E0,0E0,0E0,0E0,0E0,0E0],"parents":[2147483647,0,0,1,1,2,2,3,3,4,4,5,5,6,6,7,7,9,9,12,12,13,13,15,15,16,16,17,17,21,21,22,22],"right_children":[2,4,6,8,10,12,14,16,-1,18,-1,-1,20,22,-1,24,26,28,-1,-1,-1,30,32,-1,-1,-1,-1,-1,-1,-1,-1,-1,-1],"split_conditions":[1E0,1E0,1E0,1E0,1E0,1E0,1E0,1E0,3.0349834E5,1E0,-5.1039003E5,6.3935773E4,1E0,1E0,1.6853797E5,1E0,1E0,1E0,2.1793297E5,-1.3142358E5,-1.3073883E4,1E0,1E0,-1.4798333E3,1.6926533E5,4.724504E4,2.9840628E5,-6.239195E4,1.4015505E5,4.0260098E4,-2.0120584E5,1.3619077E5,2.8342545E4],"split_indices":[136,2,5,13,161,12,8,127,0,157,0,0,52,22,0,40,8,107,0,0,0,80,1,0,0,0,0,0,0,0,0,0,0],"split_type":[0,0,0,0,0,0,0,0,0,0,0,0,0,0,0,0,0,0,0,0,0,0,0,0,0,0,0,0,0,0,0,0,0],"sum_hessian":[3.968E3,3.742E3,2.26E2,3.426E3,3.16E2,3.3E1,1.93E2,3.415E3,1.1E1,3.09E2,7E0,1.1E1,2.2E1,1.68E2,2.5E1,3.391E3,2.4E1,2.95E2,1.4E1,1.4E1,8E0,1.28E2,4E1,3.374E3,1.7E1,1.1E1,1.3E1,2.78E2,1.7E1,1.19E2,9E0,2.6E1,1.4E1],"tree_param":{"num_deleted":"0","num_feature":"169","num_nodes":"33","size_leaf_vector":"1"}},{"base_weights":[1.0220885E2,2.9222625E3,-1.6608903E5,8.168475E3,-3.8990484E5,1.0969983E4,-2.4102317E5,-1.4492981E5,-1.13866625E5,7.63299E3,5.697026E5,-5.6669055E4,4.0244324E4,1.2879515E3,2.0636314E5,-7.306384E4,2.8236444E5],"categories":[],"categories_nodes":[],"categories_segments":[],"categories_sizes":[],"default_left":[0,0,0,0,0,0,0,0,0,0,0,0,0,0,0,0,0],"id":41,"left_children":[1,3,-1,5,7,9,-1,-1,11,13,15,-1,-1,-1,-1,-1,-1],"loss_changes":[8.2617083E12,8.147083E12,0E0,1.1797707E13,3.6488626E12,7.25447E12,0E0,0E0,1.0184336E12,6.7148374E12,1.4198951E13,0E0,0E0,0E0,0E0,0E0,0E0],"parents":[2147483647,0,0,1,1,3,3,4,4,5,5,8,8,9,9,10,10],"right_children":[2,4,-1,6,8,10,-1,-1,12,14,16,-1,-1,-1,-1,-1,-1],"split_conditions":[1E0,1E0,-1.6608903E5,1E0,1E0,1E0,-2.4102317E5,-1.4492981E5,1E0,1E0,1E0,-5.6669055E4,4.0244324E4,1.2879515E3,2.0636314E5,-7.306384E4,2.8236444E5],"split_indices":[42,143,0,39,0,127,0,0,102,23,0,0,0,0,0,0,0],"split_type":[0,0,0,0,0,0,0,0,0,0,0,0,0,0,0,0,0],"sum_hessian":[3.968E3,3.953E3,1.5E1,3.901E3,5.2E1,3.891E3,1E1,2.7E1,2.5E1,3.868E3,2.3E1,1.7E1,8E0,3.86E3,8E0,1E1,1.3E1],"tree_param":{"num_deleted":"0","num_feature":"169","num_nodes":"17","size_leaf_vector":"1"}},{"base_weights":[7.534706E1,7.580109E3,-2.899264E5,1.0443531E4,-1.7441164E5,-1.0958118E5,-2.2661397E5,1.4671529E4,-5.0933466E5,1.3109027E5,-2.243322E5,-6.951343E3,1.1790456E5,-8.534218E5,-5.0092895E4,2.1255725E5,-1.1575349E5,1.1752332E3,-9.493212E4,1.844015E4,5.0073472E5,-3.1354672E5,-6.778856E4,2.067339E4,6.167499E4],"categories":[],"categories_nodes":[],"categories_segments":[],"categories_sizes":[],"default_left":[0,0,0,0,0,0,0,0,0,0,0,0,0,0,0,0,0,0,0,0,0,0,0,0,0],"id":42,"left_children":[1,3,5,7,-1,9,-1,11,13,15,-1,17,19,21,-1,23,-1,-1,-1,-1,-1,-1,-1,-1,-1],"loss_changes":[8.636369E12,8.670475E12,1.29371E13,8.470598E12,0E0,1.7121155E13,0E0,8.533986E12,3.049002E12,3.3294296E12,0E0,1.5970366E13,5.0145186E13,4.1629317E12,0E0,4.1419434E11,0E0,0E0,0E0,0E0,0E0,0E0,0E0,0E0,0E0],"parents":[2147483647,0,0,1,1,2,2,3,3,5,5,7,7,8,8,9,9,11,11,12,12,13,13,15,15],"right_children":[2,4,6,8,-1,10,-1,12,14,16,-1,18,20,22,-1,24,-1,-1,-1,-1,-1,-1,-1,-1,-1],"split_conditions":[1E0,1E0,1E0,1E0,-1.7441164E5,1E0,-2.2661397E5,1E0,1E0,1E0,-2.243322E5,1E0,1E0,1E0,-5.0092895E4,1E0,-1.1575349E5,1.1752332E3,-9.493212E4,1.844015E4,5.0073472E5,-3.1354672E5,-6.778856E4,2.067339E4,6.167499E4],"split_indices":[111,153,4,159,0,20,0,20,10,168,0,66,66,20,0,10,0,0,0,0,0,0,0,0,0],"split_type":[0,0,0,0,0,0,0,0,0,0,0,0,0,0,0,0,0,0,0,0,0,0,0,0,0],"sum_hessian":[3.968E3,3.868E3,1E2,3.854E3,1.4E1,8E1,2E1,3.823E3,3.1E1,6.3E1,1.7E1,3.161E3,6.62E2,1.4E1,1.7E1,5.6E1,7E0,3.071E3,9E1,6.51E2,1.1E1,7E0,7E0,1.9E1,3.7E1],"tree_param":{"num_deleted":"0","num_feature":"169","num_nodes":"25","size_leaf_vector":"1"}},{"base_weights":[4.1813885E1,-5.095056E3,3.7169097E5,-7.8548755E3,1.4920616E5,1.2782235E5,5.5163294E5,-1.2559165E4,3.8525094E5,5.649815E4,-7.501885E3,8.24844E5,1.1684216E4,-2.4009863E3,-3.0549997E5,-2.7749525E5,6.7817356E5,2.2825477E5,1.0425626E5,-1.9344779E3,9.059934E4,-1.2135819E5,-1.8401027E4,5.447836E5,-6.833538E4],"categories":[],"categories_nodes":[],"categories_segments":[],"categories_sizes":[],"default_left":[0,0,0,0,0,0,0,0,0,0,0,0,0,0,0,0,0,0,0,0,0,0,0,0,0],"id":43,"left_children":[1,3,5,7,-1,9,11,13,15,-1,-1,17,-1,19,21,-1,23,-1,-1,-1,-1,-1,-1,-1,-1],"loss_changes":[7.575743E12,7.2189183E12,2.3669752E12,7.2091765E12,0E0,4.597971E11,4.2416252E12,1.1462794E13,2.1940283E13,0E0,0E0,1.3307468E12,0E0,9.345558E12,6.750206E12,0E0,6.6993726E13,0E0,0E0,0E0,0E0,0E0,0E0,0E0,0E0],"parents":[2147483647,0,0,1,1,2,2,3,3,5,5,6,6,7,7,8,8,11,11,13,13,14,14,16,16],"right_children":[2,4,6,8,-1,10,12,14,16,-1,-1,18,-1,20,22,-1,24,-1,-1,-1,-1,-1,-1,-1,-1],"split_conditions":[1E0,1E0,1E0,1E0,1.4920616E5,1E0,1E0,1E0,1E0,5.649815E4,-7.501885E3,1E0,1.1684216E4,1E0,1E0,-2.7749525E5,1E0,2.2825477E5,1.0425626E5,-1.9344779E3,9.059934E4,-1.2135819E5,-1.8401027E4,5.447836E5,-6.833538E4],"split_indices":[68,45,0,164,0,120,8,52,5,0,0,120,0,35,8,0,22,0,0,0,0,0,0,0,0],"split_type":[0,0,0,0,0,0,0,0,0,0,0,0,0,0,0,0,0,0,0,0,0,0,0,0,0],"sum_hessian":[3.968E3,3.914E3,5.4E1,3.898E3,1.6E1,2.3E1,3.1E1,3.852E3,4.6E1,1.3E1,1E1,2E1,1.1E1,3.723E3,1.29E2,7E0,3.9E1,1.3E1,7E0,3.667E3,5.6E1,6.3E1,6.6E1,1.4E1,2.5E1],"tree_param":{"num_deleted":"0","num_feature":"169","num_nodes":"25","size_leaf_vector":"1"}},{"base_weights":[4.9726048E1,1.2550809E4,-1.4538234E5,9.598166E3,1.629123E5,-6.664775E4,-6.9897175E5,5.158249E3,4.1837522E5,-1.2095578E5,6.2293644E5,2.7039832E4,-5.6938406E5,2.0589697E4,-1.7705106E5,7.364409E4,3.4965947E5,-2.0830144E5,2.1977355E5,1.8883353E5,7.9250305E4,-1.0541045E6,4.4196038E5,7.4659077E3,-7.2165805E4,-1.7833584E4,-1.6129606E5,-5.108255E4,1.5104098E5,-1.708711E4,-1.6071547E5,-4.2188746E4,1.22022516E5,-2.5999869E5,-1.9814858E5],"categories":[],"categories_nodes":[],"categories_segments":[],"categories_sizes":[],"default_left":[0,0,0,0,0,0,0,0,0,0,0,0,0,0,0,0,0,0,0,0,0,0,0,0,0,0,0,0,0,0,0,0,0,0,0],"id":44,"left_children":[1,3,5,7,-1,9,11,13,15,17,19,21,-1,23,25,27,-1,29,31,-1,-1,33,-1,-1,-1,-1,-1,-1,-1,-1,-1,-1,-1,-1,-1],"loss_changes":[7.2144194E12,7.6759003E12,1.3685902E13,6.604518E12,0E0,1.0310019E13,5.200125E13,1.0122959E13,1.5296194E13,7.596666E12,1.1475275E12,5.906036E13,0E0,1.4266633E13,1.4833419E13,5.424203E12,0E0,1.3596619E13,6.854409E12,0E0,0E0,2.167071E11,0E0,0E0,0E0,0E0,0E0,0E0,0E0,0E0,0E0,0E0,0E0,0E0,0E0],"parents":[2147483647,0,0,1,1,2,2,3,3,5,5,6,6,7,7,8,8,9,9,10,10,11,11,13,13,14,14,15,15,17,17,18,18,21,21],"right_children":[2,4,6,8,-1,10,12,14,16,18,20,22,-1,24,26,28,-1,30,32,-1,-1,34,-1,-1,-1,-1,-1,-1,-1,-1,-1,-1,-1,-1,-1],"split_conditions":[1E0,1E0,1E0,1E0,1.629123E5,1E0,1E0,1E0,1E0,1E0,1E0,1E0,-5.6938406E5,1E0,1E0,1E0,3.4965947E5,1E0,1E0,1.8883353E5,7.9250305E4,1E0,4.4196038E5,7.4659077E3,-7.2165805E4,-1.7833584E4,-1.6129606E5,-5.108255E4,1.5104098E5,-1.708711E4,-1.6071547E5,-4.2188746E4,1.22022516E5,-2.5999869E5,-1.9814858E5],"split_indices":[137,45,22,77,0,11,99,105,20,8,0,0,0,126,20,0,0,20,102,0,0,166,0,0,0,0,0,0,0,0,0,0,0,0,0],"split_type":[0,0,0,0,0,0,0,0,0,0,0,0,0,0,0,0,0,0,0,0,0,0,0,0,0,0,0,0,0,0,0,0,0,0,0],"sum_hessian":[3.968E3,3.654E3,3.14E2,3.639E3,1.5E1,2.75E2,3.9E1,3.6E3,3.9E1,2.55E2,2E1,2.8E1,1.1E1,3.319E3,2.81E2,3E1,9E0,2.03E2,5.2E1,1.1E1,9E0,1.8E1,1E1,3.201E3,1.18E2,2.38E2,4.3E1,2E1,1E1,1.61E2,4.2E1,2.3E1,2.9E1,1.1E1,7E0],"tree_param":{"num_deleted":"0","num_feature":"169","num_nodes":"35","size_leaf_vector":"1"}},{"base_weights":[3.728341E1,-3.6590261E3,4.3947366E5,-1.1660296E4,1.900499E5,1.5754397E5,2.4298467E5,-8.715377E3,-1.3305317E5,2.7323472E5,-2.6025919E5,4.724668E4,2.7580848E4,3.785077E3,-1.2710697E5,1.692163E5,2.1812303E5,1.4877513E3,-1.9343292E5,-3.662827E4,1.6811989E5,-1.0830908E5,7.192589E4],"categories":[],"categories_nodes":[],"categories_segments":[],"categories_sizes":[],"default_left":[0,0,0,0,0,0,0,0,0,0,0,0,0,0,0,0,0,0,0,0,0,0,0],"id":45,"left_children":[1,3,5,7,9,11,-1,13,-1,15,-1,-1,-1,17,19,21,-1,-1,-1,-1,-1,-1,-1],"loss_changes":[6.4455175E12,6.0993013E12,5.959661E12,6.450906E12,1.7519455E13,3.9779172E10,0E0,5.564803E12,0E0,1.0636243E13,0E0,0E0,0E0,8.303363E12,1.1216055E13,1.2554339E13,0E0,0E0,0E0,0E0,0E0,0E0,0E0],"parents":[2147483647,0,0,1,1,2,2,3,3,4,4,5,5,7,7,9,9,13,13,14,14,15,15],"right_children":[2,4,6,8,10,12,-1,14,-1,16,-1,-1,-1,18,20,22,-1,-1,-1,-1,-1,-1,-1],"split_conditions":[1E0,1E0,1E0,1E0,1E0,1E0,2.4298467E5,1E0,-1.3305317E5,1E0,-2.6025919E5,4.724668E4,2.7580848E4,1E0,1E0,1E0,2.1812303E5,1.4877513E3,-1.9343292E5,-3.662827E4,1.6811989E5,-1.0830908E5,7.192589E4],"split_indices":[152,67,2,149,120,5,0,2,0,163,0,0,0,144,157,5,0,0,0,0,0,0,0],"split_type":[0,0,0,0,0,0,0,0,0,0,0,0,0,0,0,0,0,0,0,0,0,0,0],"sum_hessian":[3.968E3,3.935E3,3.3E1,3.779E3,1.56E2,2.3E1,1E1,3.76E3,1.9E1,1.47E2,9E0,9E0,1.4E1,3.401E3,3.59E2,1.28E2,1.9E1,3.39E3,1.1E1,3.45E2,1.4E1,2.4E1,1.04E2],"tree_param":{"num_deleted":"0","num_feature":"169","num_nodes":"23","size_leaf_vector":"1"}},{"base_weights":[2.986166E1,4.9756875E3,-3.5779747E5,8.223791E3,-1.1685089E5,-2.1254345E5,-2.2240864E5,1.3673572E4,-3.0707625E5,-1.03669086E5,-1.2044025E5,5.3949695E4,-4.106315E4,-1.5912239E5,-3.4521994E5,6.7221125E4,-7.513987E4,1.3763597E4,-2.8220562E5,-3.257999E3,-1.8585333E5,2.0054477E4,-1.8511042E5],"categories":[],"categories_nodes":[],"categories_segments":[],"categories_sizes":[],"default_left":[0,0,0,0,0,0,0,0,0,0,0,0,0,0,0,0,0,0,0,0,0,0,0],"id":46,"left_children":[1,3,5,7,-1,9,-1,11,13,15,-1,17,19,21,-1,-1,-1,-1,-1,-1,-1,-1,-1],"loss_changes":[7.022729E12,6.6662286E12,4.9350695E12,6.684843E12,0E0,1.5440725E12,0E0,8.430766E12,1.1977632E13,3.0774822E12,0E0,2.0821676E13,3.3825468E13,9.743386E12,0E0,0E0,0E0,0E0,0E0,0E0,0E0,0E0,0E0],"parents":[2147483647,0,0,1,1,2,2,3,3,5,5,7,7,8,8,9,9,11,11,12,12,13,13],"right_children":[2,4,6,8,-1,10,-1,12,14,16,-1,18,20,22,-1,-1,-1,-1,-1,-1,-1,-1,-1],"split_conditions":[1E0,1E0,1E0,1E0,-1.1685089E5,1E0,-2.2240864E5,1E0,1E0,1E0,-1.2044025E5,1E0,1E0,1E0,-3.4521994E5,6.7221125E4,-7.513987E4,1.3763597E4,-2.8220562E5,-3.257999E3,-1.8585333E5,2.0054477E4,-1.8511042E5],"split_indices":[49,57,4,115,0,18,0,0,93,0,0,75,132,18,0,0,0,0,0,0,0,0,0],"split_type":[0,0,0,0,0,0,0,0,0,0,0,0,0,0,0,0,0,0,0,0,0,0,0],"sum_hessian":[3.968E3,3.914E3,5.4E1,3.89E3,2.4E1,4.4E1,1E1,3.824E3,6.6E1,3.3E1,1.1E1,2.203E3,1.621E3,5.9E1,7E0,1.2E1,2.1E1,2.191E3,1.2E1,1.568E3,5.3E1,4.3E1,1.6E1],"tree_param":{"num_deleted":"0","num_feature":"169","num_nodes":"23","size_leaf_vector":"1"}},{"base_weights":[-1.3040889E1,-1.0180766E4,1.6440845E5,-1.6520076E4,3.5895197E5,6.753529E4,1.4576368E6,3.260833E3,-1.0992615E5,1.3877823E5,2.3803264E5,-9.302582E4,1.6256805E6,-1.12485086E5,8.878737E5,-3.4408792E3,5.033074E5,-1.4212327E5,7.162992E5,-7.7146086E4,3.1814388E5,-4.6021162E5,-1.7990955E4,4.675646E5,2.3760142E5,4.6453143E2,-2.8247044E5,3.3251562E4,3.5051672E5,-3.854457E4,1.7416828E5,7.43158E4,2.8081975E5,-2.4667684E4,2.5474089E5,6.023134E4,-6.097818E5,-2.5278045E4,1.305556E5],"categories":[],"categories_nodes":[],"categories_segments":[],"categories_sizes":[],"default_left":[0,0,0,0,0,0,0,0,0,0,0,0,0,0,0,0,0,0,0,0,0,0,0,0,0,0,0,0,0,0,0,0,0,0,0,0,0,0,0],"id":47,"left_children":[1,3,5,7,9,11,13,15,17,19,-1,21,23,-1,-1,25,27,29,31,-1,33,35,37,-1,-1,-1,-1,-1,-1,-1,-1,-1,-1,-1,-1,-1,-1,-1,-1],"loss_changes":[6.6340074E12,8.745581E12,2.8942157E13,6.788513E12,9.696093E12,5.3828313E13,7.862605E13,1.016125E13,1.7091371E13,4.1663353E12,0E0,5.374516E12,4.960557E12,0E0,0E0,2.0624051E13,1.5011049E13,1.6541429E13,4.905878E12,0E0,1.2235196E13,5.428169E13,9.156626E12,0E0,0E0,0E0,0E0,0E0,0E0,0E0,0E0,0E0,0E0,0E0,0E0,0E0,0E0,0E0,0E0],"parents":[2147483647,0,0,1,1,2,2,3,3,4,4,5,5,6,6,7,7,8,8,9,9,11,11,12,12,15,15,16,16,17,17,18,18,20,20,21,21,22,22],"right_children":[2,4,6,8,10,12,14,16,18,20,-1,22,24,-1,-1,26,28,30,32,-1,34,36,38,-1,-1,-1,-1,-1,-1,-1,-1,-1,-1,-1,-1,-1,-1,-1,-1],"split_conditions":[1E0,1E0,1E0,1E0,1E0,1E0,1E0,1E0,1E0,1E0,2.3803264E5,1E0,1E0,-1.12485086E5,8.878737E5,1E0,1E0,1E0,1E0,-7.7146086E4,1E0,1E0,1E0,4.675646E5,2.3760142E5,4.6453143E2,-2.8247044E5,3.3251562E4,3.5051672E5,-3.854457E4,1.7416828E5,7.43158E4,2.8081975E5,-2.4667684E4,2.5474089E5,6.023134E4,-6.097818E5,-2.5278045E4,1.305556E5],"split_indices":[128,21,22,4,